{"learner":{"attributes":{"scikit_learn":"{\"_estimator_type\": \"classifier\"}"},"feature_names":[],"feature_types":[],"gradient_booster":{"model":{"gbtree_model_param":{"num_parallel_tree":"1","num_trees":"100"},"iteration_indptr":[0,1,2,3,4,5,6,7,8,9,10,11,12,13,14,15,16,17,18,19,20,21,22,23,24,25,26,27,28,29,30,31,32,33,34,35,36,37,38,39,40,41,42,43,44,45,46,47,48,49,50,51,52,53,54,55,56,57,58,59,60,61,62,63,64,65,66,67,68,69,70,71,72,73,74,75,76,77,78,79,80,81,82,83,84,85,86,87,88,89,90,91,92,93,94,95,96,97,98,99,100],"tree_info":[0,0,0,0,0,0,0,0,0,0,0,0,0,0,0,0,0,0,0,0,0,0,0,0,0,0,0,0,0,0,0,0,0,0,0,0,0,0,0,0,0,0,0,0,0,0,0,0,0,0,0,0,0,0,0,0,0,0,0,0,0,0,0,0,0,0,0,0,0,0,0,0,0,0,0,0,0,0,0,0,0,0,0,0,0,0,0,0,0,0,0,0,0,0,0,0,0,0,0,0],"trees":[{"base_weights":[7.182057E-8,-8.9004195E-1,4.8206325E0,-1.0210286E0,3.763485E0,2.3537707E0,7.625415E0,-1.0606736E0,1.0679159E0,2.4438515E-2,2.0732715E0,1.1555007E0,6.7252126E0,7.8155856E0,-1.9553553E-1,-1.085117E0,8.340111E-1,-8.1394786E-1,4.5459847E0,-7.76468E-1,8.418906E-1,4.4512755E-1,2.0371678E0,2.0997198E0,5.9998333E-1,1.1258569E-1,7.93883E0,-1.0974995E0,3.0030847E-1,-2.9177833E-1,1.3684086E0,-2.9759815E-1,2.656845E-2,4.3505827E-1,1.5887907E0,-2.9408178E-1,9.227615E-2,-8.343859E-2,1.7774936E0,8.058626E0,6.089414E-1,-3.3134183E-1,8.518668E-2,-2.8134325E-1,1.1206151E0,-1.5671912E-1,1.7226232E0,2.4424543E0,5.4459834E-1],"categories":[],"categories_nodes":[],"categories_segments":[],"categories_sizes":[],"default_left":[0,0,0,0,0,0,0,0,0,0,0,0,0,0,0,0,0,0,0,0,0,0,0,0,0,0,0,0,0,0,0,0,0,0,0,0,0,0,0,0,0,0,0,0,0,0,0,0,0],"id":0,"left_children":[1,3,5,7,9,11,13,15,17,19,-1,21,23,25,-1,27,29,31,33,35,-1,37,-1,-1,-1,-1,39,41,43,-1,-1,-1,-1,-1,-1,-1,-1,45,-1,47,-1,-1,-1,-1,-1,-1,-1,-1,-1],"loss_changes":[3.8392563E3,4.642671E2,9.4699E2,6.204059E1,2.4570514E2,3.884825E2,1.07117676E2,3.4354736E1,9.6618095E1,2.5690094E1,0E0,2.394787E2,6.7938232E0,5.5189697E1,0E0,1.2569763E1,7.019013E1,1.7043905E0,4.24485E0,2.2848172E0,0E0,1.5941809E2,0E0,0E0,0E0,0E0,2.7780273E1,7.128113E0,3.3723938E1,0E0,0E0,0E0,0E0,0E0,0E0,0E0,0E0,1.3348509E2,0E0,1.6672363E1,0E0,0E0,0E0,0E0,0E0,0E0,0E0,0E0,0E0],"parents":[2147483647,0,0,1,1,2,2,3,3,4,4,5,5,6,6,7,7,8,8,9,9,11,11,12,12,13,13,15,15,16,16,17,17,18,18,19,19,21,21,26,26,27,27,28,28,37,37,39,39],"right_children":[2,4,6,8,10,12,14,16,18,20,-1,22,24,26,-1,28,30,32,34,36,-1,38,-1,-1,-1,-1,40,42,44,-1,-1,-1,-1,-1,-1,-1,-1,46,-1,48,-1,-1,-1,-1,-1,-1,-1,-1,-1],"split_conditions":[1E0,1E0,1E0,1E0,1E0,1E0,1E0,1E0,1E0,1E0,2.0732715E0,1E0,1E0,1E0,-1.9553553E-1,1E0,1E0,1E0,1E0,1E0,8.418906E-1,1E0,2.0371678E0,2.0997198E0,5.9998333E-1,1.1258569E-1,1E0,1E0,1E0,-2.9177833E-1,1.3684086E0,-2.9759815E-1,2.656845E-2,4.3505827E-1,1.5887907E0,-2.9408178E-1,9.227615E-2,1E0,1.7774936E0,1E0,6.089414E-1,-3.3134183E-1,8.518668E-2,-2.8134325E-1,1.1206151E0,-1.5671912E-1,1.7226232E0,2.4424543E0,5.4459834E-1],"split_indices":[794,1954,322,422,1911,29,1152,1555,184,718,0,1244,650,294,0,866,1911,58,642,1754,0,1964,0,0,0,0,122,462,606,0,0,0,0,0,0,0,0,406,0,176,0,0,0,0,0,0,0,0,0],"split_type":[0,0,0,0,0,0,0,0,0,0,0,0,0,0,0,0,0,0,0,0,0,0,0,0,0,0,0,0,0,0,0,0,0,0,0,0,0,0,0,0,0,0,0,0,0,0,0,0,0],"sum_hessian":[8.928136E2,7.543517E2,1.3846194E2,7.3445886E2,1.9892824E1,7.464733E1,6.3814606E1,7.2126263E2,1.319623E1,9.552495E0,1.034033E1,5.9579994E1,1.5067338E1,6.2435894E1,1.3787106E0,7.12498E2,8.764661E0,9.060099E0,4.136132E0,7.9768257E0,1.5756693E0,5.3868195E1,5.711801E0,1.37871065E1,1.2802312E0,1.0832727E0,6.1352623E1,7.063922E2,6.1057186E0,6.4011564E0,2.363504E0,7.4844294E0,1.5756693E0,1.3787106E0,2.7574213E0,6.795074E0,1.181752E0,5.00275E1,3.840694E0,5.9776955E1,1.5756693E0,7.0304395E2,3.348297E0,5.0224457E0,1.0832727E0,4.7368557E1,2.658942E0,5.869368E1,1.0832727E0],"tree_param":{"num_deleted":"0","num_feature":"2048","num_nodes":"49","size_leaf_vector":"1"}},{"base_weights":[-2.5824112E-1,-9.135578E-1,1.0810556E0,-1.0071955E0,8.4318316E-1,-6.8084264E-1,1.2649927E0,-1.0363486E0,3.8618046E-1,-2.8671104E-1,1.4365116E0,-1.0112077E0,4.3412226E-1,1.3788608E0,-8.837872E-1,-1.0545028E0,2.900896E-1,-4.8692214E-1,1.8447789E0,1.5889614E0,-2.6930624E-1,-3.272076E-1,-3.163669E-1,1.4934626E0,-1.3050997E-1,-3.027391E-1,5.2252576E-2,-1.0672268E0,-1.06263585E-1,-2.7277932E-1,7.204393E-1,-2.78392E-1,5.4979366E-1,8.2421684E-1,6.992668E-1,1.6649481E0,5.2797984E-2,1.3264331E-1,-2.194246E-1,1.5142584E0,-3.995909E-1,-9.4983435E-1,1.2415009E0,-3.223008E-1,-6.9446035E-2,-2.7811643E-1,6.015687E-1,9.315161E-3,2.4290644E-1,-2.5027541E-2,4.0131968E-1,5.240892E-1,6.39108E-2,4.6210328E-1,-1.903144E-1,-3.2349914E-1,5.6695007E-2,4.586843E-1,9.149486E-2],"categories":[],"categories_nodes":[],"categories_segments":[],"categories_sizes":[],"default_left":[0,0,0,0,0,0,0,0,0,0,0,0,0,0,0,0,0,0,0,0,0,0,0,0,0,0,0,0,0,0,0,0,0,0,0,0,0,0,0,0,0,0,0,0,0,0,0,0,0,0,0,0,0,0,0,0,0,0,0],"id":1,"left_children":[1,3,5,7,9,11,13,15,17,-1,19,21,-1,23,25,27,29,31,33,35,-1,-1,37,39,41,-1,-1,43,45,-1,-1,-1,47,49,-1,51,-1,-1,-1,53,-1,55,57,-1,-1,-1,-1,-1,-1,-1,-1,-1,-1,-1,-1,-1,-1,-1,-1],"loss_changes":[7.651089E2,9.710202E1,9.3709045E1,2.298468E1,3.3557976E1,2.0958847E1,6.47775E1,1.3426392E1,1.6336517E1,0E0,9.637623E0,1.0132465E0,0E0,4.29346E1,1.9901352E0,6.3743286E0,2.2798258E1,4.339391E0,4.3441772E-1,2.071354E0,0E0,0E0,1.5616202E0,1.5515076E1,2.1813623E1,0E0,0E0,2.9030762E0,1.6122978E1,0E0,0E0,0E0,3.9648902E-1,1.5466743E0,0E0,2.1022453E0,0E0,0E0,0E0,1.3785278E1,0E0,1.9684801E0,1.4979429E0,0E0,0E0,0E0,0E0,0E0,0E0,0E0,0E0,0E0,0E0,0E0,0E0,0E0,0E0,0E0,0E0],"parents":[2147483647,0,0,1,1,2,2,3,3,4,4,5,5,6,6,7,7,8,8,10,10,11,11,13,13,14,14,15,15,16,16,17,17,18,18,19,19,22,22,23,23,24,24,27,27,28,28,32,32,33,33,35,35,39,39,41,41,42,42],"right_children":[2,4,6,8,10,12,14,16,18,-1,20,22,-1,24,26,28,30,32,34,36,-1,-1,38,40,42,-1,-1,44,46,-1,-1,-1,48,50,-1,52,-1,-1,-1,54,-1,56,58,-1,-1,-1,-1,-1,-1,-1,-1,-1,-1,-1,-1,-1,-1,-1,-1],"split_conditions":[1E0,1E0,1E0,1E0,1E0,1E0,1E0,1E0,1E0,-2.8671104E-1,1E0,1E0,4.3412226E-1,1E0,1E0,1E0,1E0,1E0,1E0,1E0,-2.6930624E-1,-3.272076E-1,1E0,1E0,1E0,-3.027391E-1,5.2252576E-2,1E0,1E0,-2.7277932E-1,7.204393E-1,-2.78392E-1,1E0,1E0,6.992668E-1,1E0,5.2797984E-2,1.3264331E-1,-2.194246E-1,1E0,-3.995909E-1,1E0,1E0,-3.223008E-1,-6.9446035E-2,-2.7811643E-1,6.015687E-1,9.315161E-3,2.4290644E-1,-2.5027541E-2,4.0131968E-1,5.240892E-1,6.39108E-2,4.6210328E-1,-1.903144E-1,-3.2349914E-1,5.6695007E-2,4.586843E-1,9.149486E-2],"split_indices":[1911,1671,1873,1954,29,1671,1152,1896,1447,0,1060,1399,0,935,931,1107,866,409,294,342,0,0,784,683,636,0,0,1071,1243,0,0,0,699,322,0,1427,0,0,0,1017,0,1357,1145,0,0,0,0,0,0,0,0,0,0,0,0,0,0,0,0],"split_type":[0,0,0,0,0,0,0,0,0,0,0,0,0,0,0,0,0,0,0,0,0,0,0,0,0,0,0,0,0,0,0,0,0,0,0,0,0,0,0,0,0,0,0,0,0,0,0,0,0,0,0,0,0,0,0,0,0,0,0],"sum_hessian":[8.696312E2,5.8413324E2,2.85498E2,5.5497845E2,2.915475E1,2.6732355E1,2.5876566E2,5.4385583E2,1.1122639E1,7.0796185E0,2.2075132E1,2.3594095E1,3.1382604E0,2.460835E2,1.268215E1,5.367151E2,7.140746E0,7.3745046E0,3.7481341E0,2.1021461E1,1.053671E0,2.0660948E1,2.9331465E0,2.2872748E2,1.7356018E1,1.1380043E1,1.302106E0,5.294847E2,7.230378E0,4.9170146E0,2.2237315E0,5.2471113E0,2.127393E0,2.0789747E0,1.6691593E0,1.9779428E1,1.2420341E0,1.0142663E0,1.9188802E0,2.2751695E2,1.210513E0,1.1059386E1,6.296633E0,5.247356E2,4.7490826E0,5.6104145E0,1.6199636E0,1.0837424E0,1.0436506E0,1.0538423E0,1.0251325E0,1.8529514E1,1.2499144E0,2.2506761E2,2.4493523E0,9.985776E0,1.0736097E0,4.333851E0,1.962782E0],"tree_param":{"num_deleted":"0","num_feature":"2048","num_nodes":"59","size_leaf_vector":"1"}},{"base_weights":[-2.4712385E-1,-8.6855483E-1,8.1704795E-1,-9.902334E-1,4.0858108E-1,-6.1693853E-1,9.4758666E-1,-1.011733E0,3.9532635E-1,-5.193584E-1,1.149512E0,-9.5010597E-1,3.3646497E-1,1.0434451E0,-6.753152E-1,-1.02824E0,-1.8340233E-1,-2.51268E-1,5.148037E-1,-7.477385E-1,4.3719867E-1,1.4418467E0,4.7169587E-1,-3.1335777E-1,-2.679941E-1,5.2857465E-1,1.2430929E0,-9.479914E-1,1.8265213E-1,-1.0378851E0,-4.8196297E-2,-7.226506E-1,4.1251835E-1,-9.767619E-1,1.9631612E-1,4.6062085E-1,5.3991646E-2,1.2171911E-1,3.1176108E-1,1.0539295E-1,-2.0154001E-1,7.538118E-1,-4.6334565E-1,1.313571E0,-2.6577985E-1,-3.2602805E-1,7.9671144E-2,-3.1504378E-1,-1.297798E-1,-2.332405E-1,3.5096303E-1,-2.8135934E-1,1.011698E-1,-3.1440073E-1,-2.4782509E-2,-4.712605E-2,1.8789905E-1,2.5161597E-1,-2.4743254E-1,-3.0308014E-1,2.0325187E-1,4.0071777E-1,-2.890889E-1,-2.4216653E-1,1.8117844E-1],"categories":[],"categories_nodes":[],"categories_segments":[],"categories_sizes":[],"default_left":[0,0,0,0,0,0,0,0,0,0,0,0,0,0,0,0,0,0,0,0,0,0,0,0,0,0,0,0,0,0,0,0,0,0,0,0,0,0,0,0,0,0,0,0,0,0,0,0,0,0,0,0,0,0,0,0,0,0,0,0,0,0,0,0,0],"id":2,"left_children":[1,3,5,7,9,11,13,15,17,19,21,23,-1,25,27,29,31,-1,-1,33,-1,35,37,-1,39,41,43,45,-1,47,49,51,-1,53,-1,-1,-1,55,-1,-1,-1,57,59,61,63,-1,-1,-1,-1,-1,-1,-1,-1,-1,-1,-1,-1,-1,-1,-1,-1,-1,-1,-1,-1],"loss_changes":[4.7627133E2,7.1032104E1,5.0308777E1,1.2769714E1,2.8265251E1,1.4253719E1,3.864235E1,5.406189E0,1.2939127E1,9.466228E0,3.8153248E0,9.8555756E-1,0E0,2.305275E1,5.55218E0,3.7401733E0,8.735366E0,0E0,0E0,6.192751E0,0E0,1.5375595E0,1.526479E0,0E0,1.1698673E0,1.5137018E1,1.7945374E1,2.3280659E0,0E0,2.492096E0,5.312307E0,2.0268939E0,0E0,8.859558E-1,0E0,0E0,0E0,9.819868E-1,0E0,0E0,0E0,7.9726963E0,8.713343E0,9.271088E0,4.3562307E0,0E0,0E0,0E0,0E0,0E0,0E0,0E0,0E0,0E0,0E0,0E0,0E0,0E0,0E0,0E0,0E0,0E0,0E0,0E0,0E0],"parents":[2147483647,0,0,1,1,2,2,3,3,4,4,5,5,6,6,7,7,8,8,9,9,10,10,11,11,13,13,14,14,15,15,16,16,19,19,21,21,22,22,24,24,25,25,26,26,27,27,29,29,30,30,31,31,33,33,37,37,41,41,42,42,43,43,44,44],"right_children":[2,4,6,8,10,12,14,16,18,20,22,24,-1,26,28,30,32,-1,-1,34,-1,36,38,-1,40,42,44,46,-1,48,50,52,-1,54,-1,-1,-1,56,-1,-1,-1,58,60,62,64,-1,-1,-1,-1,-1,-1,-1,-1,-1,-1,-1,-1,-1,-1,-1,-1,-1,-1,-1,-1],"split_conditions":[1E0,1E0,1E0,1E0,1E0,1E0,1E0,1E0,1E0,1E0,1E0,1E0,3.3646497E-1,1E0,1E0,1E0,1E0,-2.51268E-1,5.148037E-1,1E0,4.3719867E-1,1E0,1E0,-3.1335777E-1,1E0,1E0,1E0,1E0,1.8265213E-1,1E0,1E0,1E0,4.1251835E-1,1E0,1.9631612E-1,4.6062085E-1,5.3991646E-2,1E0,3.1176108E-1,1.0539295E-1,-2.0154001E-1,1E0,1E0,1E0,1E0,-3.2602805E-1,7.9671144E-2,-3.1504378E-1,-1.297798E-1,-2.332405E-1,3.5096303E-1,-2.8135934E-1,1.011698E-1,-3.1440073E-1,-2.4782509E-2,-4.712605E-2,1.8789905E-1,2.5161597E-1,-2.4743254E-1,-3.0308014E-1,2.0325187E-1,4.0071777E-1,-2.890889E-1,-2.4216653E-1,1.8117844E-1],"split_indices":[1911,794,1873,866,896,1671,1199,1954,1896,797,1445,1399,0,1143,1714,1132,896,0,0,102,0,1,207,0,784,378,244,1158,0,1854,1928,237,0,387,0,0,0,636,0,0,0,116,1928,1287,790,0,0,0,0,0,0,0,0,0,0,0,0,0,0,0,0,0,0,0,0],"split_type":[0,0,0,0,0,0,0,0,0,0,0,0,0,0,0,0,0,0,0,0,0,0,0,0,0,0,0,0,0,0,0,0,0,0,0,0,0,0,0,0,0,0,0,0,0,0,0,0,0,0,0,0,0,0,0,0,0,0,0,0,0,0,0,0,0],"sum_hessian":[7.181215E2,4.534878E2,2.646337E2,4.1424536E2,3.9242428E1,2.1769255E1,2.4286446E2,4.0818143E2,6.063918E0,1.7555288E1,2.168714E1,1.864884E1,3.1204143E0,2.2965659E2,1.320786E1,3.9996954E2,8.21191E0,3.325403E0,2.7385151E0,1.6294407E1,1.2608823E0,1.4364635E1,7.3225036E0,1.5914584E1,2.734256E0,6.51889E1,1.644677E2,1.1110456E1,2.0974038E0,3.9601318E2,3.9563575E0,6.499356E0,1.7125545E0,1.4267347E1,2.0270596E0,1.3171342E1,1.1932938E0,5.2805295E0,2.0419738E0,1.1304796E0,1.6037765E0,5.332121E1,1.1867693E1,1.5725203E2,7.2156663E0,1.0064127E1,1.0463289E0,3.8743033E2,8.58284E0,2.7009783E0,1.2553792E0,5.498073E0,1.0012826E0,1.3055136E1,1.2122121E0,3.8448715E0,1.4356579E0,5.1044353E1,2.2768567E0,8.099348E0,3.7683449E0,1.5614632E2,1.1057006E0,4.491379E0,2.7242875E0],"tree_param":{"num_deleted":"0","num_feature":"2048","num_nodes":"65","size_leaf_vector":"1"}},{"base_weights":[-2.3220357E-1,-8.251174E-1,6.4616907E-1,-9.555611E-1,3.5094935E-1,7.37265E-1,-8.742418E-1,-9.792413E-1,3.1783134E-1,-4.351255E-1,9.288058E-1,-5.674951E-1,8.262227E-1,-3.0000013E-1,1.10339485E-1,-9.993155E-1,-1.410251E-1,-2.3691188E-1,3.9243993E-1,-6.637861E-1,3.6260745E-1,1.0089895E0,-9.339901E-2,-3.0252236E-1,2.8463283E-1,3.7380183E-1,1.0171108E0,-1.0117297E0,5.6203343E-2,-6.4715445E-1,2.8827766E-1,-8.334217E-1,2.4569157E-1,1.1096379E0,-4.8647217E-2,-1.4258565E-1,7.410512E-1,1.081588E0,-1.817165E-1,-3.072502E-1,-8.405143E-2,-2.0694016E-1,2.5033993E-1,-2.6466787E-1,8.742516E-2,-2.8228673E-1,2.4743985E-2,3.569864E-1,5.5039022E-2,-1.3428654E-1,5.652615E-1,2.4900891E-1,-3.514914E-1,3.3325154E-1,-2.3654975E-1,-1.6912642E-1,1.487934E-1],"categories":[],"categories_nodes":[],"categories_segments":[],"categories_sizes":[],"default_left":[0,0,0,0,0,0,0,0,0,0,0,0,0,0,0,0,0,0,0,0,0,0,0,0,0,0,0,0,0,0,0,0,0,0,0,0,0,0,0,0,0,0,0,0,0,0,0,0,0,0,0,0,0,0,0,0,0],"id":3,"left_children":[1,3,5,7,9,11,13,15,17,19,21,23,25,-1,-1,27,29,-1,-1,31,-1,33,-1,-1,-1,35,37,39,41,43,-1,45,-1,47,-1,49,51,53,55,-1,-1,-1,-1,-1,-1,-1,-1,-1,-1,-1,-1,-1,-1,-1,-1,-1,-1],"loss_changes":[3.080125E2,5.4475952E1,3.367559E1,9.898651E0,1.6741604E1,2.6647789E1,2.5449867E0,5.1154175E0,8.227596E0,6.7858768E0,2.4070835E0,1.0977518E1,1.7890335E1,0E0,0E0,4.052368E0,5.346161E0,0E0,0E0,4.360024E0,0E0,2.5380383E0,0E0,0E0,0E0,1.2310393E1,1.16521E1,2.455658E0,3.183555E0,1.669601E0,0E0,1.4185791E0,0E0,1.1615429E0,0E0,1.7898212E1,7.400587E0,8.576736E0,2.4596324E0,0E0,0E0,0E0,0E0,0E0,0E0,0E0,0E0,0E0,0E0,0E0,0E0,0E0,0E0,0E0,0E0,0E0,0E0],"parents":[2147483647,0,0,1,1,2,2,3,3,4,4,5,5,6,6,7,7,8,8,9,9,10,10,11,11,12,12,15,15,16,16,19,19,21,21,25,25,26,26,27,27,28,28,29,29,31,31,33,33,35,35,36,36,37,37,38,38],"right_children":[2,4,6,8,10,12,14,16,18,20,22,24,26,-1,-1,28,30,-1,-1,32,-1,34,-1,-1,-1,36,38,40,42,44,-1,46,-1,48,-1,50,52,54,56,-1,-1,-1,-1,-1,-1,-1,-1,-1,-1,-1,-1,-1,-1,-1,-1,-1,-1],"split_conditions":[1E0,1E0,1E0,1E0,1E0,1E0,1E0,1E0,1E0,1E0,1E0,1E0,1E0,-3.0000013E-1,1.10339485E-1,1E0,1E0,-2.3691188E-1,3.9243993E-1,1E0,3.6260745E-1,1E0,-9.339901E-2,-3.0252236E-1,2.8463283E-1,1E0,1E0,1E0,1E0,1E0,2.8827766E-1,1E0,2.4569157E-1,1E0,-4.8647217E-2,1E0,1E0,1E0,1E0,-3.072502E-1,-8.405143E-2,-2.0694016E-1,2.5033993E-1,-2.6466787E-1,8.742516E-2,-2.8228673E-1,2.4743985E-2,3.569864E-1,5.5039022E-2,-1.3428654E-1,5.652615E-1,2.4900891E-1,-3.514914E-1,3.3325154E-1,-2.3654975E-1,-1.6912642E-1,1.487934E-1],"split_indices":[1911,794,1152,866,896,1380,245,1954,1747,380,1747,712,1143,0,0,1071,896,0,0,1896,0,1923,0,0,0,591,244,1671,80,271,0,298,0,1039,0,1052,2017,1475,790,0,0,0,0,0,0,0,0,0,0,0,0,0,0,0,0,0,0],"split_type":[0,0,0,0,0,0,0,0,0,0,0,0,0,0,0,0,0,0,0,0,0,0,0,0,0,0,0,0,0,0,0,0,0,0,0,0,0,0,0,0,0,0,0,0,0,0,0,0,0,0,0,0,0,0,0,0,0],"sum_hessian":[5.89399E2,3.5191324E2,2.3748573E2,3.1694653E2,3.4966694E1,2.2454701E2,1.2938724E1,3.1138693E2,5.55961E0,1.4918979E1,2.0047716E1,1.3988955E1,2.1055806E2,1.1926064E1,1.01266E0,3.0391635E2,7.470582E0,2.720078E0,2.8395321E0,1.3620511E1,1.2984676E0,1.9005278E1,1.0424386E0,1.1097021E1,2.8919332E0,6.335636E1,1.4720169E2,3.0042444E2,3.4918995E0,5.4020996E0,2.0684824E0,1.261519E1,1.0053216E0,1.7549587E1,1.4556911E0,2.6585861E1,3.67705E1,1.3978154E2,7.4201565E0,2.9500888E2,5.41557E0,1.8409367E0,1.6509627E0,4.36811E0,1.0339897E0,1.126521E1,1.349979E0,1.5887072E1,1.6625148E0,2.3785276E1,2.8005853E0,3.567685E1,1.0936495E0,1.3802861E2,1.7529341E0,4.8526754E0,2.5674808E0],"tree_param":{"num_deleted":"0","num_feature":"2048","num_nodes":"57","size_leaf_vector":"1"}},{"base_weights":[-2.1556464E-1,-7.837124E-1,5.181793E-1,-9.220868E-1,2.959097E-1,6.134024E-1,-4.9946755E-1,-9.7973734E-1,-2.6701316E-1,-3.494003E-1,7.4626875E-1,-5.6084013E-1,6.960139E-1,-8.053288E-1,2.8657043E-1,-1.0009849E0,7.058806E-3,-5.170189E-1,4.3585256E-1,-6.5621746E-1,2.364911E-1,9.888974E-1,2.557007E-1,-2.916838E-1,7.997517E-1,7.495847E-1,-6.080001E-1,-9.502782E-1,1.5765725E-1,-1.0129999E0,-1.4358269E-1,-2.4452813E-1,5.733505E-1,-8.3740765E-1,7.4780643E-1,-2.8244528E-1,9.573735E-2,3.2510138E-1,2.3057784E-3,-3.7152264E-2,2.4886607E-1,2.8539908E-1,7.435348E-2,8.3516693E-1,-8.678356E-2,-7.6438224E-1,5.568026E-2,-3.1621957E-1,5.855157E-2,-3.0662793E-1,-8.288799E-2,1.1750638E-1,-1.8979995E-1,-2.8928602E-1,1.0987829E-1,3.125451E-1,4.3714526E-3,-8.804399E-2,1.4742342E-1,2.7288148E-1,-2.6955457E-2,-1.3719063E-1,3.5603926E-1,-2.9997402E-1,4.0041152E-2],"categories":[],"categories_nodes":[],"categories_segments":[],"categories_sizes":[],"default_left":[0,0,0,0,0,0,0,0,0,0,0,0,0,0,0,0,0,0,0,0,0,0,0,0,0,0,0,0,0,0,0,0,0,0,0,0,0,0,0,0,0,0,0,0,0,0,0,0,0,0,0,0,0,0,0,0,0,0,0,0,0,0,0,0,0],"id":4,"left_children":[1,3,5,7,9,11,13,15,17,19,21,23,25,27,-1,29,31,33,-1,35,-1,37,39,-1,41,43,45,47,-1,49,51,-1,-1,53,55,-1,-1,-1,-1,57,-1,-1,-1,59,61,63,-1,-1,-1,-1,-1,-1,-1,-1,-1,-1,-1,-1,-1,-1,-1,-1,-1,-1,-1],"loss_changes":[2.032537E2,4.130185E1,2.0942085E1,8.941116E0,9.548531E0,1.9323845E1,9.12183E0,4.695236E0,9.817337E0,5.3404083E0,2.0254412E0,8.269195E0,1.3225334E1,3.5962505E0,0E0,2.1094666E0,1.0490301E1,8.385238E0,0E0,3.4801207E0,0E0,1.1502075E0,1.3219733E0,0E0,7.006264E-2,1.2672455E1,1.1055872E0,1.9691172E0,0E0,1.1625671E0,1.3447429E0,0E0,0E0,2.7583513E0,9.3294764E-1,0E0,0E0,0E0,0E0,9.631036E-1,0E0,0E0,0E0,1.1083916E1,8.681021E0,1.5466037E0,0E0,0E0,0E0,0E0,0E0,0E0,0E0,0E0,0E0,0E0,0E0,0E0,0E0,0E0,0E0,0E0,0E0,0E0,0E0],"parents":[2147483647,0,0,1,1,2,2,3,3,4,4,5,5,6,6,7,7,8,8,9,9,10,10,11,11,12,12,13,13,15,15,16,16,17,17,19,19,21,21,22,22,24,24,25,25,26,26,27,27,29,29,30,30,33,33,34,34,39,39,43,43,44,44,45,45],"right_children":[2,4,6,8,10,12,14,16,18,20,22,24,26,28,-1,30,32,34,-1,36,-1,38,40,-1,42,44,46,48,-1,50,52,-1,-1,54,56,-1,-1,-1,-1,58,-1,-1,-1,60,62,64,-1,-1,-1,-1,-1,-1,-1,-1,-1,-1,-1,-1,-1,-1,-1,-1,-1,-1,-1],"split_conditions":[1E0,1E0,1E0,1E0,1E0,1E0,1E0,1E0,1E0,1E0,1E0,1E0,1E0,1E0,2.8657043E-1,1E0,1E0,1E0,4.3585256E-1,1E0,2.364911E-1,1E0,1E0,-2.916838E-1,1E0,1E0,1E0,1E0,1.5765725E-1,1E0,1E0,-2.4452813E-1,5.733505E-1,1E0,1E0,-2.8244528E-1,9.573735E-2,3.2510138E-1,2.3057784E-3,1E0,2.4886607E-1,2.8539908E-1,7.435348E-2,1E0,1E0,1E0,5.568026E-2,-3.1621957E-1,5.855157E-2,-3.0662793E-1,-8.288799E-2,1.1750638E-1,-1.8979995E-1,-2.8928602E-1,1.0987829E-1,3.125451E-1,4.3714526E-3,-8.804399E-2,1.4742342E-1,2.7288148E-1,-2.6955457E-2,-1.3719063E-1,3.5603926E-1,-2.9997402E-1,4.0041152E-2],"split_indices":[1911,794,935,718,896,1380,699,2047,1854,102,1445,712,1199,1714,0,543,1928,1954,0,1325,0,1,207,0,1928,1722,145,178,0,33,650,0,0,1729,114,0,0,0,0,636,0,0,0,728,94,1357,0,0,0,0,0,0,0,0,0,0,0,0,0,0,0,0,0,0,0],"split_type":[0,0,0,0,0,0,0,0,0,0,0,0,0,0,0,0,0,0,0,0,0,0,0,0,0,0,0,0,0,0,0,0,0,0,0,0,0,0,0,0,0,0,0,0,0,0,0,0,0,0,0,0,0,0,0,0,0,0,0,0,0,0,0,0,0],"sum_hessian":[4.8559094E2,2.7363983E2,2.1195111E2,2.4268146E2,3.0958382E1,1.9417868E2,1.777243E1,2.2259601E2,2.0085459E1,1.2817142E1,1.814124E1,1.2382639E1,1.8179604E2,1.5053684E1,2.7187457E0,2.1789003E2,4.7059727E0,1.8146923E1,1.938535E0,1.0428092E1,2.3890495E0,1.1458295E1,6.6829443E0,9.726708E0,2.6559303E0,1.750307E2,6.765336E0,1.3833028E1,1.2206564E0,2.1469994E2,3.1900995E0,3.686257E0,1.0197155E0,1.4748864E1,3.3980598E0,8.095147E0,2.332945E0,1.0353812E1,1.1044822E0,5.0440726E0,1.6388713E0,1.5158846E0,1.1400456E0,1.5878436E2,1.6246342E1,5.682412E0,1.0829235E0,1.27569275E1,1.0761003E0,2.1169955E2,3.0003808E0,1.6182113E0,1.5718881E0,1.35223465E1,1.2265171E0,2.125095E0,1.272965E0,3.6963043E0,1.3477685E0,1.4697377E2,1.1810588E1,1.3081514E1,3.164827E0,4.4114876E0,1.2709248E0],"tree_param":{"num_deleted":"0","num_feature":"2048","num_nodes":"65","size_leaf_vector":"1"}},{"base_weights":[-1.967128E-1,-6.809303E-1,5.009781E-1,-8.7387174E-1,2.8034395E-1,3.580563E-1,1.1317537E0,-9.2007536E-1,8.475671E-1,-2.0311607E-2,8.296006E-1,4.1619596E-1,-3.0964458E-1,1.1745138E0,3.1685937E-2,-9.6935177E-1,1.2877144E-1,-1.8792118E-1,4.624656E-1,-2.999134E-1,1.0189903E0,-6.096986E-2,9.7113234E-1,4.4608614E-1,-4.5539498E-1,3.601663E-1,1.2234784E-1,-9.966425E-1,-4.3252338E-2,-4.7651532E-1,3.9179698E-1,-5.150576E-1,6.20497E-1,4.3024144E-1,9.84283E-2,1.0287706E0,4.310696E-2,4.8826715E-1,-1.025801E0,-3.0415463E-1,6.5337867E-3,-1.9776432E-1,4.8408502E-1,-2.5604367E-1,2.1078548E-1,-2.007041E-1,2.7148703E-1,3.159457E-1,-2.0575065E-2,3.2793918E-1,5.658174E-2,8.509962E-2,2.4864306E-1,-3.9259925E-1,-6.137165E-2],"categories":[],"categories_nodes":[],"categories_segments":[],"categories_sizes":[],"default_left":[0,0,0,0,0,0,0,0,0,0,0,0,0,0,0,0,0,0,0,0,0,0,0,0,0,0,0,0,0,0,0,0,0,0,0,0,0,0,0,0,0,0,0,0,0,0,0,0,0,0,0,0,0,0,0],"id":5,"left_children":[1,3,5,7,9,11,13,15,17,19,21,23,-1,25,-1,27,29,-1,-1,31,33,-1,35,37,-1,-1,-1,39,41,43,-1,45,47,-1,-1,49,-1,51,53,-1,-1,-1,-1,-1,-1,-1,-1,-1,-1,-1,-1,-1,-1,-1,-1],"loss_changes":[1.3745506E2,4.47591E1,1.4636929E1,1.669751E1,6.767214E0,1.1542725E1,1.208046E0,1.02226715E1,6.8490486E0,8.265796E0,2.3146505E0,8.348236E0,0E0,9.029007E-2,0E0,4.676239E0,7.4984922E0,0E0,0E0,4.7470455E0,1.2603407E0,0E0,4.6796417E-1,8.661503E0,0E0,0E0,0E0,3.1997223E0,7.585615E0,3.7581415E0,0E0,4.686807E0,1.4703768E0,0E0,0E0,4.3775654E-1,0E0,8.715237E0,6.5783405E-1,0E0,0E0,0E0,0E0,0E0,0E0,0E0,0E0,0E0,0E0,0E0,0E0,0E0,0E0,0E0,0E0],"parents":[2147483647,0,0,1,1,2,2,3,3,4,4,5,5,6,6,7,7,8,8,9,9,10,10,11,11,13,13,15,15,16,16,19,19,20,20,22,22,23,23,27,27,28,28,29,29,31,31,32,32,35,35,37,37,38,38],"right_children":[2,4,6,8,10,12,14,16,18,20,22,24,-1,26,-1,28,30,-1,-1,32,34,-1,36,38,-1,-1,-1,40,42,44,-1,46,48,-1,-1,50,-1,52,54,-1,-1,-1,-1,-1,-1,-1,-1,-1,-1,-1,-1,-1,-1,-1,-1],"split_conditions":[1E0,1E0,1E0,1E0,1E0,1E0,1E0,1E0,1E0,1E0,1E0,1E0,-3.0964458E-1,1E0,3.1685937E-2,1E0,1E0,-1.8792118E-1,4.624656E-1,1E0,1E0,-6.096986E-2,1E0,1E0,-4.5539498E-1,3.601663E-1,1.2234784E-1,1E0,1E0,1E0,3.9179698E-1,1E0,1E0,4.3024144E-1,9.84283E-2,1E0,4.310696E-2,1E0,1E0,-3.0415463E-1,6.5337867E-3,-1.9776432E-1,4.8408502E-1,-2.5604367E-1,2.1078548E-1,-2.007041E-1,2.7148703E-1,3.159457E-1,-2.0575065E-2,3.2793918E-1,5.658174E-2,8.509962E-2,2.4864306E-1,-3.9259925E-1,-6.137165E-2],"split_indices":[794,102,630,1263,1008,314,1680,1366,1052,959,1384,683,0,486,0,1854,1729,0,0,1854,234,0,526,1475,0,0,0,406,322,1325,0,443,495,0,0,875,0,102,232,0,0,0,0,0,0,0,0,0,0,0,0,0,0,0,0],"split_type":[0,0,0,0,0,0,0,0,0,0,0,0,0,0,0,0,0,0,0,0,0,0,0,0,0,0,0,0,0,0,0,0,0,0,0,0,0,0,0,0,0,0,0,0,0,0,0,0,0,0,0,0,0,0,0],"sum_hessian":[4.048617E2,2.3900758E2,1.658541E2,1.9913023E2,3.9877342E1,1.3649464E2,2.9359453E1,1.9437862E2,4.7516246E0,2.6393127E1,1.3484217E1,1.3168796E2,4.8066916E0,2.8046143E1,1.3133118E0,1.8572859E2,8.650022E0,1.5522164E0,3.1994083E0,2.1358507E1,5.0346193E0,1.5725465E0,1.191167E1,1.3044153E2,1.2464345E0,2.6577538E1,1.468605E0,1.8033813E2,5.390455E0,6.105827E0,2.544195E0,1.7668852E1,3.689657E0,2.472918E0,2.5617013E0,1.0908488E1,1.003181E0,1.2745715E2,2.9843676E0,1.7734634E2,2.9917982E0,4.3685308E0,1.021924E0,4.8359704E0,1.2698561E0,1.6417732E1,1.2511191E0,1.9419892E0,1.7476679E0,9.852646E0,1.0558428E0,8.076543E1,4.669173E1,1.7783056E0,1.2060618E0],"tree_param":{"num_deleted":"0","num_feature":"2048","num_nodes":"55","size_leaf_vector":"1"}},{"base_weights":[-1.7389025E-1,-6.827448E-1,3.326329E-1,-8.1052685E-1,4.7859335E-1,2.0140086E-1,9.5620054E-1,-9.195029E-1,5.785643E-3,-2.1396796E-1,7.01355E-1,1.1815263E-1,1.3079386E0,1.0250021E0,-5.910548E-2,-9.469928E-1,2.5622606E-1,-2.4744703E-1,3.9795992E-1,8.1206393E-1,-1.3056558E-1,-3.8441494E-2,7.3049927E-1,4.1870028E-1,1.24662094E-1,1.0833368E0,-6.467792E-2,-9.65732E-1,1.38016E-1,-1.15908615E-1,2.884006E-1,-5.4633373E-1,5.199263E-1,9.5200515E-1,-1.4294975E-2,-3.1375358E-1,4.9859738E-1,1.0015073E0,-3.8847798E-1,3.3956864E-1,-1.8284898E-2,-2.9627904E-1,-8.021205E-3,-2.9393947E-2,9.498009E-2,-2.1274917E-1,1.22083254E-1,2.66955E-1,-8.375777E-2,3.17531E-1,-2.3884375E-2,-1.2821487E-1,2.3724268E-1,1.7015764E-1,-2.701706E-1,3.2626584E-1,-1.034564E-2,4.4208015E-3,-3.4751162E-1],"categories":[],"categories_nodes":[],"categories_segments":[],"categories_sizes":[],"default_left":[0,0,0,0,0,0,0,0,0,0,0,0,0,0,0,0,0,0,0,0,0,0,0,0,0,0,0,0,0,0,0,0,0,0,0,0,0,0,0,0,0,0,0,0,0,0,0,0,0,0,0,0,0,0,0,0,0,0,0],"id":6,"left_children":[1,3,5,7,9,11,13,15,17,-1,19,21,23,25,-1,27,29,31,-1,33,-1,35,37,-1,-1,39,-1,41,43,-1,-1,45,47,49,-1,51,53,55,57,-1,-1,-1,-1,-1,-1,-1,-1,-1,-1,-1,-1,-1,-1,-1,-1,-1,-1,-1,-1],"loss_changes":[8.88256E1,2.5883354E1,1.395932E1,1.3806854E1,5.1884313E0,1.312302E1,2.5664368E0,4.666687E0,6.771908E0,0E0,2.2889218E0,1.2987759E1,2.0182991E-1,2.2804852E0,0E0,2.8570786E0,2.1449873E0,4.1852446E0,0E0,1.7736807E0,0E0,1.6210073E1,8.75078E0,0E0,0E0,1.5792446E0,0E0,2.6798859E0,1.637516E-1,0E0,0E0,2.2644024E0,1.8093604E0,1.4459944E0,0E0,9.424186E0,4.079567E0,2.0411549E0,1.9096423E0,0E0,0E0,0E0,0E0,0E0,0E0,0E0,0E0,0E0,0E0,0E0,0E0,0E0,0E0,0E0,0E0,0E0,0E0,0E0,0E0],"parents":[2147483647,0,0,1,1,2,2,3,3,4,4,5,5,6,6,7,7,8,8,10,10,11,11,12,12,13,13,15,15,16,16,17,17,19,19,21,21,22,22,25,25,27,27,28,28,31,31,32,32,33,33,35,35,36,36,37,37,38,38],"right_children":[2,4,6,8,10,12,14,16,18,-1,20,22,24,26,-1,28,30,32,-1,34,-1,36,38,-1,-1,40,-1,42,44,-1,-1,46,48,50,-1,52,54,56,58,-1,-1,-1,-1,-1,-1,-1,-1,-1,-1,-1,-1,-1,-1,-1,-1,-1,-1,-1,-1],"split_conditions":[1E0,1E0,1E0,1E0,1E0,1E0,1E0,1E0,1E0,-2.1396796E-1,1E0,1E0,1E0,1E0,-5.910548E-2,1E0,1E0,1E0,3.9795992E-1,1E0,-1.3056558E-1,1E0,1E0,4.1870028E-1,1.24662094E-1,1E0,-6.467792E-2,1E0,1E0,-1.15908615E-1,2.884006E-1,1E0,1E0,1E0,-1.4294975E-2,1E0,1E0,1E0,1E0,3.3956864E-1,-1.8284898E-2,-2.9627904E-1,-8.021205E-3,-2.9393947E-2,9.498009E-2,-2.1274917E-1,1.22083254E-1,2.66955E-1,-8.375777E-2,3.17531E-1,-2.3884375E-2,-1.2821487E-1,2.3724268E-1,1.7015764E-1,-2.701706E-1,3.2626584E-1,-1.034564E-2,4.4208015E-3,-3.4751162E-1],"split_indices":[1911,1671,959,718,29,1648,479,783,202,0,231,931,378,1716,0,1132,1107,1954,0,352,0,896,353,0,0,935,0,1954,1452,0,0,1729,114,342,0,1954,1088,251,283,0,0,0,0,0,0,0,0,0,0,0,0,0,0,0,0,0,0,0,0],"split_type":[0,0,0,0,0,0,0,0,0,0,0,0,0,0,0,0,0,0,0,0,0,0,0,0,0,0,0,0,0,0,0,0,0,0,0,0,0,0,0,0,0,0,0,0,0,0,0,0,0,0,0,0,0,0,0,0,0,0,0],"sum_hessian":[3.427426E2,1.7080428E2,1.7193834E2,1.5414569E2,1.6658575E1,1.4313753E2,2.8800825E1,1.3587962E2,1.8266071E1,2.2765932E0,1.4381982E1,1.3415166E2,8.985864E0,2.7284218E1,1.5166066E0,1.3296529E2,2.9143329E0,1.6009203E1,2.2568686E0,1.3365609E1,1.016373E0,1.0757815E2,2.6573513E1,7.6680856E0,1.317778E0,2.6179955E1,1.1042633E0,1.308159E2,2.149382E0,1.7612783E0,1.1530547E0,1.1728917E1,4.2802863E0,1.1402241E1,1.9633679E0,7.1393936E1,3.6184208E1,2.1476936E1,5.096576E0,2.5124603E1,1.0553515E0,1.2778855E2,3.027357E0,1.120291E0,1.0290911E0,1.0236493E1,1.4924244E0,2.8482509E0,1.4320352E0,1.0312329E1,1.0899113E0,6.529041E1,6.103523E0,3.5059998E1,1.1242115E0,1.9783987E1,1.692949E0,3.9885345E0,1.1080416E0],"tree_param":{"num_deleted":"0","num_feature":"2048","num_nodes":"59","size_leaf_vector":"1"}},{"base_weights":[-1.4825508E-1,-5.932808E-1,3.4838796E-1,-8.052241E-1,1.6517736E-1,2.4280608E-1,9.487924E-1,-8.5895133E-1,6.1986697E-1,2.6225767E-1,-2.5716987E-1,1.6305646E-1,9.240163E-1,1.0014966E0,2.0886758E-2,-9.047985E-1,7.085563E-1,-1.923076E-1,4.2257068E-1,3.536499E-1,-2.574995E-1,5.0772466E-2,7.450565E-1,2.1882065E-1,1.2046273E0,1.0330133E0,7.762879E-2,-9.5280904E-1,1.857502E-1,7.269169E-2,2.4841158E-1,4.780091E-2,6.3132584E-1,-3.722425E-2,3.240036E-1,8.525733E-1,-5.5396717E-2,-2.0074268E-1,2.5338775E-1,3.962063E-1,7.8953445E-2,1.3999899E-1,1.0820221E0,-2.9324627E-1,8.201118E-2,-2.1736857E-1,3.1550655E-1,-4.583924E-2,2.130955E-1,2.4039224E-1,-2.5404597E-2,-8.367775E-2,1.0134639E-1,2.8409955E-1,-6.3169315E-2,3.3434516E-1,1.0092179E-1],"categories":[],"categories_nodes":[],"categories_segments":[],"categories_sizes":[],"default_left":[0,0,0,0,0,0,0,0,0,0,0,0,0,0,0,0,0,0,0,0,0,0,0,0,0,0,0,0,0,0,0,0,0,0,0,0,0,0,0,0,0,0,0,0,0,0,0,0,0,0,0,0,0,0,0,0,0],"id":7,"left_children":[1,3,5,7,9,11,13,15,17,19,-1,21,23,25,-1,27,29,-1,-1,31,-1,33,35,37,39,41,-1,43,45,-1,-1,47,49,51,-1,53,-1,-1,-1,-1,-1,-1,55,-1,-1,-1,-1,-1,-1,-1,-1,-1,-1,-1,-1,-1,-1],"loss_changes":[6.5430725E1,2.5211826E1,8.650505E0,9.881706E0,3.6892283E0,6.394963E0,8.851433E-1,9.127754E0,5.892308E0,3.6466005E0,0E0,7.090109E0,2.192751E0,1.8605995E-1,0E0,6.2072144E0,1.7551422E-2,0E0,0E0,2.5931704E0,0E0,8.418568E0,1.9134312E0,3.207676E0,5.983982E-1,1.461029E-3,0E0,3.6103668E0,5.2500267E0,0E0,0E0,2.2058246E0,2.0283923E0,7.9070816E0,0E0,1.7979803E0,0E0,0E0,0E0,0E0,0E0,0E0,1.31549835E-2,0E0,0E0,0E0,0E0,0E0,0E0,0E0,0E0,0E0,0E0,0E0,0E0,0E0,0E0],"parents":[2147483647,0,0,1,1,2,2,3,3,4,4,5,5,6,6,7,7,8,8,9,9,11,11,12,12,13,13,15,15,16,16,19,19,21,21,22,22,23,23,24,24,25,25,27,27,28,28,31,31,32,32,33,33,35,35,42,42],"right_children":[2,4,6,8,10,12,14,16,18,20,-1,22,24,26,-1,28,30,-1,-1,32,-1,34,36,38,40,42,-1,44,46,-1,-1,48,50,52,-1,54,-1,-1,-1,-1,-1,-1,56,-1,-1,-1,-1,-1,-1,-1,-1,-1,-1,-1,-1,-1,-1],"split_conditions":[1E0,1E0,1E0,1E0,1E0,1E0,1E0,1E0,1E0,1E0,-2.5716987E-1,1E0,1E0,1E0,2.0886758E-2,1E0,1E0,-1.923076E-1,4.2257068E-1,1E0,-2.574995E-1,1E0,1E0,1E0,1E0,1E0,7.762879E-2,1E0,1E0,7.269169E-2,2.4841158E-1,1E0,1E0,1E0,3.240036E-1,1E0,-5.5396717E-2,-2.0074268E-1,2.5338775E-1,3.962063E-1,7.8953445E-2,1.3999899E-1,1E0,-2.9324627E-1,8.201118E-2,-2.1736857E-1,3.1550655E-1,-4.583924E-2,2.130955E-1,2.4039224E-1,-2.5404597E-2,-8.367775E-2,1.0134639E-1,2.8409955E-1,-6.3169315E-2,3.3434516E-1,1.0092179E-1],"split_indices":[794,102,630,1648,1171,1399,1680,1720,345,926,0,797,1729,486,0,1854,1269,0,0,58,0,607,680,7,1722,1603,0,1189,695,0,0,294,251,102,0,1773,0,0,0,0,0,0,1928,0,0,0,0,0,0,0,0,0,0,0,0,0,0],"split_type":[0,0,0,0,0,0,0,0,0,0,0,0,0,0,0,0,0,0,0,0,0,0,0,0,0,0,0,0,0,0,0,0,0,0,0,0,0,0,0,0,0,0,0,0,0,0,0,0,0,0,0,0,0,0,0,0,0],"sum_hessian":[2.9410614E2,1.5501112E2,1.3909502E2,1.2110727E2,3.3903847E1,1.1948741E2,1.9607605E1,1.1709014E2,4.0171337E0,3.164278E1,2.2610672E0,1.0807445E2,1.1412967E1,1.8367386E1,1.2402189E0,1.14173515E2,2.91662E0,1.6178801E0,2.3992536E0,2.988948E1,1.7532992E0,9.150737E1,1.6567078E1,3.755336E0,7.6576304E0,1.72448E1,1.1225855E0,1.0948005E2,4.6934676E0,1.2126215E0,1.7039986E0,1.4780972E1,1.510851E1,8.5187904E1,6.319463E0,1.4924143E1,1.6429344E0,1.5238607E0,2.2314754E0,6.4586005E0,1.1990297E0,2.2114186E0,1.5033382E1,1.0751891E2,1.96114E0,2.367701E0,2.3257668E0,1.1936256E1,2.8447154E0,1.2113588E1,2.994921E0,5.195884E1,3.3229065E1,1.3807076E1,1.1170671E0,1.3932106E1,1.1012757E0],"tree_param":{"num_deleted":"0","num_feature":"2048","num_nodes":"57","size_leaf_vector":"1"}},{"base_weights":[-1.22037694E-1,-5.380365E-1,2.8817946E-1,-7.610727E-1,1.20056346E-1,1.2181671E-1,6.3661724E-1,-8.282983E-1,3.8458467E-1,1.9988331E-1,-2.3424172E-1,1.1342514E-2,8.656154E-1,7.3010796E-1,-2.5301775E-1,-8.807372E-1,6.2631595E-1,6.98079E-1,-1.6474546E-1,2.752558E-1,-2.3980649E-1,-8.5244775E-2,8.259111E-1,1.7832421E-1,1.1102899E0,8.0723214E-1,-1.829122E-1,-9.1607845E-1,3.5495475E-1,-1.1983833E-2,2.662138E-1,1.6732255E-1,3.1790334E-1,1.687824E-1,2.9564166E-1,-1.756582E-1,2.815815E-1,3.294745E-1,-2.1587914E-2,-1.886734E-1,2.2986698E-1,3.663416E-1,6.7868665E-2,4.567142E-1,3.1164926E-1,-2.848813E-1,1.253736E-1,2.2743529E-1,-5.9009172E-2,-8.42316E-2,1.5930626E-1,1.0596193E-1,-1.4182833E-1,-8.254779E-2,2.8456485E-1,1.7790063E-1,-7.613425E-2],"categories":[],"categories_nodes":[],"categories_segments":[],"categories_sizes":[],"default_left":[0,0,0,0,0,0,0,0,0,0,0,0,0,0,0,0,0,0,0,0,0,0,0,0,0,0,0,0,0,0,0,0,0,0,0,0,0,0,0,0,0,0,0,0,0,0,0,0,0,0,0,0,0,0,0,0,0],"id":8,"left_children":[1,3,5,7,9,11,13,15,17,19,-1,21,23,25,-1,27,29,31,-1,33,-1,35,37,39,41,43,-1,45,47,-1,-1,49,-1,51,-1,53,-1,-1,-1,-1,-1,-1,-1,55,-1,-1,-1,-1,-1,-1,-1,-1,-1,-1,-1,-1,-1],"loss_changes":[4.3782185E1,1.8773449E1,7.421777E0,7.6505356E0,2.5350797E0,7.287005E0,6.367859E0,7.4349556E0,2.1278048E0,2.5687351E0,0E0,6.233213E0,1.7309046E0,4.5879765E0,0E0,4.147026E0,6.8324924E-1,7.634535E-1,0E0,2.0827084E0,0E0,6.7311726E0,2.1322947E0,2.4763935E0,5.3395176E-1,2.6030731E0,0E0,4.21447E0,8.506108E-1,0E0,0E0,6.663362E-1,0E0,3.3698964E0,0E0,7.646014E0,0E0,0E0,0E0,0E0,0E0,0E0,0E0,1.783788E0,0E0,0E0,0E0,0E0,0E0,0E0,0E0,0E0,0E0,0E0,0E0,0E0,0E0],"parents":[2147483647,0,0,1,1,2,2,3,3,4,4,5,5,6,6,7,7,8,8,9,9,11,11,12,12,13,13,15,15,16,16,17,17,19,19,21,21,22,22,23,23,24,24,25,25,27,27,28,28,31,31,33,33,35,35,43,43],"right_children":[2,4,6,8,10,12,14,16,18,20,-1,22,24,26,-1,28,30,32,-1,34,-1,36,38,40,42,44,-1,46,48,-1,-1,50,-1,52,-1,54,-1,-1,-1,-1,-1,-1,-1,56,-1,-1,-1,-1,-1,-1,-1,-1,-1,-1,-1,-1,-1],"split_conditions":[1E0,1E0,1E0,1E0,1E0,1E0,1E0,1E0,1E0,1E0,-2.3424172E-1,1E0,1E0,1E0,-2.5301775E-1,1E0,1E0,1E0,-1.6474546E-1,1E0,-2.3980649E-1,1E0,1E0,1E0,1E0,1E0,-1.829122E-1,1E0,1E0,-1.1983833E-2,2.662138E-1,1E0,3.1790334E-1,1E0,2.9564166E-1,1E0,2.815815E-1,3.294745E-1,-2.1587914E-2,-1.886734E-1,2.2986698E-1,3.663416E-1,6.7868665E-2,1E0,3.1164926E-1,-2.848813E-1,1.253736E-1,2.2743529E-1,-5.9009172E-2,-8.42316E-2,1.5930626E-1,1.0596193E-1,-1.4182833E-1,-8.254779E-2,2.8456485E-1,1.7790063E-1,-7.613425E-2],"split_indices":[794,102,896,1729,1171,1399,1,1720,926,926,0,797,1729,572,0,1132,7,1366,0,1697,0,1686,1419,7,1722,636,0,1445,1057,0,0,1928,0,650,0,607,0,0,0,0,0,0,0,353,0,0,0,0,0,0,0,0,0,0,0,0,0],"split_type":[0,0,0,0,0,0,0,0,0,0,0,0,0,0,0,0,0,0,0,0,0,0,0,0,0,0,0,0,0,0,0,0,0,0,0,0,0,0,0,0,0,0,0,0,0,0,0,0,0,0,0,0,0,0,0,0,0],"sum_hessian":[2.5465292E2,1.2628075E2,1.2837218E2,9.419901E1,3.2081738E1,8.780094E1,4.0571228E1,8.923957E1,4.9594417E0,3.0185102E1,1.8966349E0,7.733052E1,1.0470422E1,3.863724E1,1.9339879E0,8.651521E1,2.7243564E0,3.9018188E0,1.057623E0,2.8741655E1,1.443447E0,6.9933525E1,7.3970017E0,3.2027395E0,7.267682E0,3.691008E1,1.727161E0,8.436111E1,2.1541076E0,1.005415E0,1.7189415E0,2.1738138E0,1.7280049E0,2.6070847E1,2.6708095E0,6.5020195E1,4.9133263E0,5.5042987E0,1.892703E0,1.3202133E0,1.8825262E0,6.119145E0,1.1485372E0,1.5867335E1,2.1042746E1,8.2574005E1,1.7871009E0,1.0283166E0,1.125791E0,1.0760611E0,1.0977528E0,2.0598776E1,5.4720707E0,6.0427166E1,4.5930314E0,1.3452273E1,2.4150615E0],"tree_param":{"num_deleted":"0","num_feature":"2048","num_nodes":"57","size_leaf_vector":"1"}},{"base_weights":[-9.699507E-2,-5.149572E-1,2.1371017E-1,-7.627577E-1,8.360176E-2,3.026797E-1,-5.465659E-1,-8.2371914E-1,2.5120518E-1,-6.529226E-2,8.6931413E-1,3.5200828E-1,-7.0821655E-1,-2.6296082E-1,2.0498566E-1,-8.894345E-1,6.6895944E-1,-3.5197574E-1,5.081703E-1,2.979847E-1,6.859864E-2,3.8403738E-1,-3.694313E-1,-2.5031078E-1,-1.857101E-2,-1.5097229E-1,5.945872E-1,-9.4462085E-1,1.5606299E-1,6.1180502E-2,2.4568433E-1,-6.1244476E-1,5.588897E-1,2.0339625E-1,4.5869906E-2,4.2015198E-1,-3.068945E-1,2.2024707E-1,4.055798E-2,-2.9441345E-1,1.443327E-1,-2.3408656E-1,1.9058146E-1,3.239023E-1,-3.7476648E-2,-9.4184615E-2,9.82657E-2,1.3781954E-1,-2.553566E-1],"categories":[],"categories_nodes":[],"categories_segments":[],"categories_sizes":[],"default_left":[0,0,0,0,0,0,0,0,0,0,0,0,0,0,0,0,0,0,0,0,0,0,0,0,0,0,0,0,0,0,0,0,0,0,0,0,0,0,0,0,0,0,0,0,0,0,0,0,0],"id":9,"left_children":[1,3,5,7,9,11,13,15,-1,17,19,21,23,-1,25,27,29,31,33,-1,-1,35,-1,-1,-1,-1,37,39,-1,-1,-1,41,43,-1,45,47,-1,-1,-1,-1,-1,-1,-1,-1,-1,-1,-1,-1,-1],"loss_changes":[2.929167E1,1.4319174E1,8.931784E0,7.329582E0,3.4541838E0,6.067005E0,3.635098E0,7.076473E0,0E0,4.3455415E0,1.458652E-1,6.148406E0,4.1799474E-1,0E0,1.6958541E0,5.4482613E0,6.713641E-2,4.4913583E0,6.64186E-1,0E0,0E0,6.0422134E0,0E0,0E0,0E0,0E0,1.3950312E-1,3.7041855E0,0E0,0E0,0E0,3.4435835E0,1.70595E0,0E0,4.526924E-1,5.799471E0,0E0,0E0,0E0,0E0,0E0,0E0,0E0,0E0,0E0,0E0,0E0,0E0,0E0],"parents":[2147483647,0,0,1,1,2,2,3,3,4,4,5,5,6,6,7,7,9,9,10,10,11,11,12,12,14,14,15,15,16,16,17,17,18,18,21,21,26,26,27,27,31,31,32,32,34,34,35,35],"right_children":[2,4,6,8,10,12,14,16,-1,18,20,22,24,-1,26,28,30,32,34,-1,-1,36,-1,-1,-1,-1,38,40,-1,-1,-1,42,44,-1,46,48,-1,-1,-1,-1,-1,-1,-1,-1,-1,-1,-1,-1,-1],"split_conditions":[1E0,1E0,1E0,1E0,1E0,1E0,1E0,1E0,2.5120518E-1,1E0,1E0,1E0,1E0,-2.6296082E-1,1E0,1E0,1E0,1E0,1E0,2.979847E-1,6.859864E-2,1E0,-3.694313E-1,-2.5031078E-1,-1.857101E-2,-1.5097229E-1,1E0,1E0,1.5606299E-1,6.1180502E-2,2.4568433E-1,1E0,1E0,2.0339625E-1,1E0,1E0,-3.068945E-1,2.2024707E-1,4.055798E-2,-2.9441345E-1,1.443327E-1,-2.3408656E-1,1.9058146E-1,3.239023E-1,-3.7476648E-2,-9.4184615E-2,9.82657E-2,1.3781954E-1,-2.553566E-1],"split_indices":[294,322,935,1239,1366,1152,636,1263,0,1411,642,1756,784,0,1160,1189,1386,1854,1399,0,0,914,0,0,0,0,145,1720,0,0,0,2000,495,0,784,1017,0,0,0,0,0,0,0,0,0,0,0,0,0],"split_type":[0,0,0,0,0,0,0,0,0,0,0,0,0,0,0,0,0,0,0,0,0,0,0,0,0,0,0,0,0,0,0,0,0,0,0,0,0,0,0,0,0,0,0,0,0,0,0,0,0],"sum_hessian":[2.2371078E2,9.511043E1,1.2860036E2,6.70696E1,2.8040823E1,1.15666626E2,1.2933733E1,6.507555E1,1.9940569E0,2.434441E1,3.6964128E0,1.1090652E2,4.760106E0,8.872112E0,4.06162E0,6.271849E1,2.357055E0,1.6488008E1,7.856402E0,2.6359284E0,1.0604843E0,1.0945009E2,1.4564304E0,3.7392762E0,1.0208299E0,1.3378907E0,2.7237296E0,6.067308E1,2.0454104E0,1.150308E0,1.2067469E0,1.3076348E1,3.4116602E0,5.404582E0,2.4518204E0,1.0739492E2,2.0551667E0,1.6303194E0,1.0934104E0,5.9451992E1,1.2210877E0,1.1856085E1,1.2202631E0,1.6080664E0,1.8035936E0,1.0262936E0,1.4255267E0,1.0479842E2,2.5964937E0],"tree_param":{"num_deleted":"0","num_feature":"2048","num_nodes":"49","size_leaf_vector":"1"}},{"base_weights":[-8.5306674E-2,-4.614424E-1,1.5131976E-1,-6.436925E-1,2.4023569E-1,1.882022E-1,-3.0230507E-1,-7.5489974E-1,6.752825E-1,3.6077687E-1,-2.4103864E-1,1.0312291E-1,7.052419E-1,-8.2664144E-1,2.8574347E-1,-1.7068286E-1,1.3138756E0,4.9399176E-1,-3.128546E-1,3.788619E-2,2.9026714E-1,8.0337167E-1,-8.2070485E-2,-8.854133E-1,4.5479432E-1,5.802594E-1,-5.340805E-2,7.242555E-1,-4.1236777E-2,-2.4365257E-1,1.0806451E-1,7.292891E-2,-4.793403E-1,8.7996036E-1,-4.1010976E-2,-2.8023323E-1,7.600331E-2,1.736391E-1,3.1944536E-2,2.7601796E-1,-8.307659E-2,1.9924107E-1,-1.4271396E-1,-3.883979E-2,1.0403506E-1,2.790135E-1,9.419467E-2],"categories":[],"categories_nodes":[],"categories_segments":[],"categories_sizes":[],"default_left":[0,0,0,0,0,0,0,0,0,0,0,0,0,0,0,0,0,0,0,0,0,0,0,0,0,0,0,0,0,0,0,0,0,0,0,0,0,0,0,0,0,0,0,0,0,0,0],"id":10,"left_children":[1,3,5,7,9,11,-1,13,15,17,-1,19,21,23,-1,-1,25,27,29,31,-1,33,-1,35,37,-1,-1,39,41,-1,-1,43,-1,45,-1,-1,-1,-1,-1,-1,-1,-1,-1,-1,-1,-1,-1],"loss_changes":[1.7969662E1,1.0117794E1,5.498975E0,9.621193E0,2.4024215E0,5.2594843E0,0E0,7.862385E0,5.0047054E0,1.5673196E0,0E0,5.8992186E0,1.8484564E0,4.6176186E0,0E0,0E0,3.900774E0,1.6975725E0,1.3718922E0,5.7861633E0,0E0,1.2481937E0,0E0,3.2229462E0,7.290757E-2,0E0,0E0,2.1201E0,1.8533531E0,0E0,0E0,5.4653893E0,0E0,1.2240696E-1,0E0,0E0,0E0,0E0,0E0,0E0,0E0,0E0,0E0,0E0,0E0,0E0,0E0],"parents":[2147483647,0,0,1,1,2,2,3,3,4,4,5,5,7,7,8,8,9,9,11,11,12,12,13,13,16,16,17,17,18,18,19,19,21,21,23,23,24,24,27,27,28,28,31,31,33,33],"right_children":[2,4,6,8,10,12,-1,14,16,18,-1,20,22,24,-1,-1,26,28,30,32,-1,34,-1,36,38,-1,-1,40,42,-1,-1,44,-1,46,-1,-1,-1,-1,-1,-1,-1,-1,-1,-1,-1,-1,-1],"split_conditions":[1E0,1E0,1E0,1E0,1E0,1E0,-3.0230507E-1,1E0,1E0,1E0,-2.4103864E-1,1E0,1E0,1E0,2.8574347E-1,-1.7068286E-1,1E0,1E0,1E0,1E0,2.9026714E-1,1E0,-8.2070485E-2,1E0,1E0,5.802594E-1,-5.340805E-2,1E0,1E0,-2.4365257E-1,1.0806451E-1,1E0,-4.793403E-1,1E0,-4.1010976E-2,-2.8023323E-1,7.600331E-2,1.736391E-1,3.1944536E-2,2.7601796E-1,-8.307659E-2,1.9924107E-1,-1.4271396E-1,-3.883979E-2,1.0403506E-1,2.790135E-1,9.419467E-2],"split_indices":[1911,896,1737,1854,251,959,0,797,725,656,0,584,479,1132,0,0,674,1445,1840,1823,0,486,0,1896,875,0,0,378,1160,0,0,1714,0,817,0,0,0,0,0,0,0,0,0,0,0,0,0],"split_type":[0,0,0,0,0,0,0,0,0,0,0,0,0,0,0,0,0,0,0,0,0,0,0,0,0,0,0,0,0,0,0,0,0,0,0,0,0,0,0,0,0,0,0,0,0,0,0],"sum_hessian":[2.0011348E2,7.690965E1,1.23203835E2,6.1117863E1,1.5791787E1,1.2021587E2,2.9879594E0,5.6759907E1,4.357958E0,1.4743342E1,1.0484444E0,1.0425936E2,1.5956512E1,5.4966145E1,1.7937611E0,1.5150753E0,2.8428826E0,1.2531777E1,2.2115648E0,9.791387E1,6.345491E0,1.4665475E1,1.2910376E0,5.285122E1,2.1149254E0,1.7985811E0,1.0443015E0,8.5152235E0,4.0165544E0,1.1510087E0,1.0605559E0,9.6795555E1,1.1183199E0,1.3619804E1,1.045671E0,5.0856136E1,1.995084E0,1.0716796E0,1.0432458E0,7.1900578E0,1.325166E0,1.329506E0,2.687048E0,5.5962887E1,4.0832664E1,1.1921585E1,1.6982191E0],"tree_param":{"num_deleted":"0","num_feature":"2048","num_nodes":"47","size_leaf_vector":"1"}},{"base_weights":[-7.0973374E-2,1.735883E-2,-8.966616E-1,1.058314E-1,-6.512123E-1,-2.8740278E-1,-3.2030214E-2,1.486295E-1,-2.888888E-1,-8.270909E-1,3.106872E-1,1.9404674E-1,-8.257325E-1,-9.0527064E-1,2.4601415E-2,-5.273883E-2,2.0054853E-1,2.5756222E-1,-4.2859948E-1,-2.7014163E-1,-6.3660584E-2,-2.8977737E-1,-2.5157833E-2,8.734468E-2,-2.775884E-1,-2.2778933E-1,9.7244434E-2],"categories":[],"categories_nodes":[],"categories_segments":[],"categories_sizes":[],"default_left":[0,0,0,0,0,0,0,0,0,0,0,0,0,0,0,0,0,0,0,0,0,0,0,0,0,0,0],"id":11,"left_children":[1,3,5,7,9,-1,-1,11,-1,13,15,17,19,21,-1,-1,-1,23,25,-1,-1,-1,-1,-1,-1,-1,-1],"loss_changes":[1.33668165E1,9.908396E0,7.5590515E-1,6.902345E0,3.5694838E0,0E0,0E0,6.485914E0,0E0,1.2701426E0,7.709067E-1,5.5437574E0,1.09565735E-1,6.9507504E-1,0E0,0E0,0E0,5.2471457E0,3.505358E0,0E0,0E0,0E0,0E0,0E0,0E0,0E0,0E0],"parents":[2147483647,0,0,1,1,2,2,3,3,4,4,7,7,9,9,10,10,11,11,12,12,13,13,17,17,18,18],"right_children":[2,4,6,8,10,-1,-1,12,-1,14,16,18,20,22,-1,-1,-1,24,26,-1,-1,-1,-1,-1,-1,-1,-1],"split_conditions":[1E0,1E0,1E0,1E0,1E0,-2.8740278E-1,-3.2030214E-2,1E0,-2.888888E-1,1E0,1E0,1E0,1E0,1E0,2.4601415E-2,-5.273883E-2,2.0054853E-1,1E0,1E0,-2.7014163E-1,-6.3660584E-2,-2.8977737E-1,-2.5157833E-2,8.734468E-2,-2.775884E-1,-2.2778933E-1,9.7244434E-2],"split_indices":[1152,935,245,1114,699,0,0,1171,0,1896,591,728,910,1034,0,0,0,1475,184,0,0,0,0,0,0,0,0],"split_type":[0,0,0,0,0,0,0,0,0,0,0,0,0,0,0,0,0,0,0,0,0,0,0,0,0,0,0],"sum_hessian":[1.820572E2,1.653473E2,1.6709894E1,1.4676718E2,1.8580118E1,1.53081455E1,1.4017493E0,1.419442E2,4.822986E0,1.5826473E1,2.7536452E0,1.3638771E2,5.5564923E0,1.457709E1,1.2493826E0,1.3825654E0,1.3710799E0,1.2429486E2,1.2092849E1,4.5362086E0,1.0202838E0,1.3410884E1,1.1662064E0,1.2159605E2,2.698808E0,8.395723E0,3.6971247E0],"tree_param":{"num_deleted":"0","num_feature":"2048","num_nodes":"27","size_leaf_vector":"1"}},{"base_weights":[-6.8697914E-2,-3.7844506E-1,1.1404043E-1,-6.18403E-1,5.38627E-2,5.9983213E-2,9.0056366E-1,-6.947296E-1,2.3405182E-1,-9.909595E-2,6.2003714E-1,-1.0072027E-2,6.9207513E-1,2.908347E-1,8.445485E-2,-7.914474E-1,4.419003E-1,-5.526939E-1,2.8821993E-1,-8.789691E-3,2.7225217E-1,-4.213145E-1,1.6631684E-1,1.6854045E-1,9.590015E-1,-8.789764E-1,1.6929987E-1,2.4172853E-1,-7.943576E-3,-2.733269E-1,1.9415754E-1,4.4312862E-1,-1.0838743E-1,-8.5497665E-1,4.2602575E-1,2.1377116E-1,-3.8466403E-1,5.193401E-1,-1.0723421E-1,7.5775325E-2,3.5691273E-1,-2.799073E-1,2.9719634E-2,1.7964259E-1,-5.8069605E-2,1.6655129E-1,-4.9301088E-2,-2.9300657E-1,1.6910754E-1,-1.3256341E-1,2.0278944E-1,8.783296E-2,-2.075706E-1,3.5333227E-2,2.0399477E-1],"categories":[],"categories_nodes":[],"categories_segments":[],"categories_sizes":[],"default_left":[0,0,0,0,0,0,0,0,0,0,0,0,0,0,0,0,0,0,0,0,0,0,0,0,0,0,0,0,0,0,0,0,0,0,0,0,0,0,0,0,0,0,0,0,0,0,0,0,0,0,0,0,0,0,0],"id":12,"left_children":[1,3,5,7,9,11,13,15,-1,17,19,21,23,-1,-1,25,27,29,31,-1,-1,33,35,37,39,41,-1,-1,-1,-1,43,45,-1,47,49,51,-1,53,-1,-1,-1,-1,-1,-1,-1,-1,-1,-1,-1,-1,-1,-1,-1,-1,-1],"loss_changes":[9.706385E0,6.628604E0,4.5439005E0,4.914917E0,2.1063864E0,4.535146E0,2.0606995E-2,4.678175E0,0E0,3.57691E0,9.898386E-1,6.8192196E0,1.2661519E0,0E0,0E0,4.844614E0,6.569085E-1,2.666903E0,1.2819965E0,0E0,0E0,1.0730797E1,4.799242E0,1.0461013E0,7.675905E-1,1.9326782E0,0E0,0E0,0E0,0E0,7.185102E-1,7.3457515E-1,0E0,3.8301334E0,2.5152006E0,4.8248706E0,0E0,1.266771E-1,0E0,0E0,0E0,0E0,0E0,0E0,0E0,0E0,0E0,0E0,0E0,0E0,0E0,0E0,0E0,0E0,0E0],"parents":[2147483647,0,0,1,1,2,2,3,3,4,4,5,5,6,6,7,7,9,9,10,10,11,11,12,12,15,15,16,16,17,17,18,18,21,21,22,22,23,23,24,24,25,25,30,30,31,31,33,33,34,34,35,35,37,37],"right_children":[2,4,6,8,10,12,14,16,-1,18,20,22,24,-1,-1,26,28,30,32,-1,-1,34,36,38,40,42,-1,-1,-1,-1,44,46,-1,48,50,52,-1,54,-1,-1,-1,-1,-1,-1,-1,-1,-1,-1,-1,-1,-1,-1,-1,-1,-1],"split_conditions":[1E0,1E0,1E0,1E0,1E0,1E0,1E0,1E0,2.3405182E-1,1E0,1E0,1E0,1E0,2.908347E-1,8.445485E-2,1E0,1E0,1E0,1E0,-8.789691E-3,2.7225217E-1,1E0,1E0,1E0,1E0,1E0,1.6929987E-1,2.4172853E-1,-7.943576E-3,-2.733269E-1,1E0,1E0,-1.0838743E-1,1E0,1E0,1E0,-3.8466403E-1,1E0,-1.0723421E-1,7.5775325E-2,3.5691273E-1,-2.799073E-1,2.9719634E-2,1.7964259E-1,-5.8069605E-2,1.6655129E-1,-4.9301088E-2,-2.9300657E-1,1.6910754E-1,-1.3256341E-1,2.0278944E-1,8.783296E-2,-2.075706E-1,3.5333227E-2,2.0399477E-1],"split_indices":[294,322,1447,1239,694,939,926,406,0,896,145,695,699,0,0,2047,650,1854,1445,0,0,310,625,1380,674,541,0,0,0,0,495,1274,0,415,1045,711,0,119,0,0,0,0,0,0,0,0,0,0,0,0,0,0,0,0,0],"split_type":[0,0,0,0,0,0,0,0,0,0,0,0,0,0,0,0,0,0,0,0,0,0,0,0,0,0,0,0,0,0,0,0,0,0,0,0,0,0,0,0,0,0,0,0,0,0,0,0,0,0,0,0,0,0,0],"sum_hessian":[1.697203E2,6.2577885E1,1.0714242E2,3.996457E1,2.2613316E1,1.0125921E2,5.8832135E0,3.8373608E1,1.5909625E0,1.8452995E1,4.16032E0,9.204217E1,9.217039E0,4.784751E0,1.0984628E0,3.5644264E1,2.7293417E0,8.302587E0,1.0150409E1,1.5522299E0,2.6080897E0,2.7211428E1,6.483074E1,3.6633523E0,5.5536866E0,3.3812984E1,1.8312799E0,1.1306628E0,1.5986788E0,5.4617286E0,2.8408575E0,8.452286E0,1.6981227E0,1.7993488E1,9.21794E0,6.3599617E1,1.2311224E0,2.2052395E0,1.4581127E0,1.8829614E0,3.670725E0,3.2085907E1,1.7270782E0,1.1236863E0,1.7171712E0,7.2087703E0,1.2435157E0,1.6858677E1,1.1348109E0,1.8893391E0,7.328601E0,5.9119156E1,4.4804606E0,1.1253455E0,1.0798942E0],"tree_param":{"num_deleted":"0","num_feature":"2048","num_nodes":"55","size_leaf_vector":"1"}},{"base_weights":[-5.171585E-2,1.2338863E-2,-8.306827E-1,-3.2885503E-2,1.0036287E0,-2.7655292E-1,-5.6998273E-3,3.2395683E-2,-6.590678E-1,5.2588206E-2,3.5370147E-1,-1.4460166E-2,3.1809837E-1,-2.675019E-1,1.9287843E-1,-1.6682668E-1,2.9495713E-1,1.3819715E-1,-5.9429243E-2,-7.454913E-2,3.0702183E-1,3.274503E-2,2.2954929E-1],"categories":[],"categories_nodes":[],"categories_segments":[],"categories_sizes":[],"default_left":[0,0,0,0,0,0,0,0,0,0,0,0,0,0,0,0,0,0,0,0,0,0,0],"id":13,"left_children":[1,3,5,7,9,-1,-1,11,13,-1,-1,15,-1,-1,17,19,21,-1,-1,-1,-1,-1,-1],"loss_changes":[7.84501E0,6.5816064E0,8.663645E-1,5.7716355E0,7.2380495E-1,0E0,0E0,6.196887E0,2.813056E0,0E0,0E0,5.882607E0,0E0,0E0,4.7658768E-1,8.37557E0,3.5149362E0,0E0,0E0,0E0,0E0,0E0,0E0],"parents":[2147483647,0,0,1,1,2,2,3,3,4,4,7,7,8,8,11,11,14,14,15,15,16,16],"right_children":[2,4,6,8,10,-1,-1,12,14,-1,-1,16,-1,-1,18,20,22,-1,-1,-1,-1,-1,-1],"split_conditions":[1E0,1E0,1E0,1E0,1E0,-2.7655292E-1,-5.6998273E-3,1E0,1E0,5.2588206E-2,3.5370147E-1,1E0,3.1809837E-1,-2.675019E-1,1E0,1E0,1E0,1.3819715E-1,-5.9429243E-2,-7.454913E-2,3.0702183E-1,3.274503E-2,2.2954929E-1],"split_indices":[1152,1648,245,935,345,0,0,1686,636,0,0,896,0,0,807,939,784,0,0,0,0,0,0],"split_type":[0,0,0,0,0,0,0,0,0,0,0,0,0,0,0,0,0,0,0,0,0,0,0],"sum_hessian":[1.5602023E2,1.4507483E2,1.0945394E1,1.396697E2,5.4051485E0,9.718221E0,1.2271736E0,1.27342186E2,1.2327501E1,1.2938038E0,4.111345E0,1.227336E2,4.6085873E0,9.646976E0,2.680525E0,8.254618E1,4.018742E1,1.4851348E0,1.1953901E0,7.7986206E1,4.559973E0,2.9688028E1,1.049939E1],"tree_param":{"num_deleted":"0","num_feature":"2048","num_nodes":"23","size_leaf_vector":"1"}},{"base_weights":[-3.3778097E-2,1.8335562E-2,-7.833312E-1,5.9122477E-2,-2.515479E-1,-2.678387E-1,-4.768931E-3,2.085663E-2,9.650395E-1,-2.0814694E-2,2.6694936E-1,6.83486E-2,3.328917E-1,-1.3315138E-1,3.9267942E-1,-1.1456236E-2,-2.983915E-1,2.0168622E-1,-1.2756993E-2],"categories":[],"categories_nodes":[],"categories_segments":[],"categories_sizes":[],"default_left":[0,0,0,0,0,0,0,0,0,0,0,0,0,0,0,0,0,0,0],"id":14,"left_children":[1,3,5,7,-1,-1,-1,9,11,13,-1,-1,-1,15,17,-1,-1,-1,-1],"loss_changes":[5.799037E0,4.9226384E0,7.964463E-1,4.6263947E0,0E0,0E0,0E0,4.7125196E0,3.2392263E-1,5.843429E0,0E0,0E0,0E0,8.043659E0,3.3004832E0,0E0,0E0,0E0,0E0],"parents":[2147483647,0,0,1,1,2,2,3,3,7,7,8,8,9,9,13,13,14,14],"right_children":[2,4,6,8,-1,-1,-1,10,12,14,-1,-1,-1,16,18,-1,-1,-1,-1],"split_conditions":[1E0,1E0,1E0,1E0,-2.515479E-1,-2.678387E-1,-4.768931E-3,1E0,1E0,1E0,2.6694936E-1,6.83486E-2,3.328917E-1,1E0,1E0,-1.1456236E-2,-2.983915E-1,2.0168622E-1,-1.2756993E-2],"split_indices":[1152,314,245,1648,0,0,0,584,345,1854,0,0,0,1088,1352,0,0,0,0],"split_type":[0,0,0,0,0,0,0,0,0,0,0,0,0,0,0,0,0,0,0],"sum_hessian":[1.470897E2,1.3844003E2,8.649686E0,1.3303812E2,5.4019074E0,7.426976E0,1.2227099E0,1.2862791E2,4.4102077E0,1.23673256E2,4.954654E0,1.1455319E0,3.2646756E0,9.778527E1,2.5887989E1,8.901702E1,8.7682495E0,1.5429874E1,1.0458116E1],"tree_param":{"num_deleted":"0","num_feature":"2048","num_nodes":"19","size_leaf_vector":"1"}},{"base_weights":[-2.6650306E-2,1.6516607E-2,-2.5397342E-1,5.234338E-2,-2.7237207E-1,1.09260835E-1,-5.0835794E-1,1.3467841E-1,-3.3945727E-1,-7.0802236E-1,1.8175042E-1,9.221217E-2,8.63203E-1,-8.542094E-1,7.953167E-2,4.68803E-2,-1.4013454E-1,7.599856E-2,2.8513435E-1,-2.9175898E-1,-4.830527E-3],"categories":[],"categories_nodes":[],"categories_segments":[],"categories_sizes":[],"default_left":[0,0,0,0,0,0,0,0,0,0,0,0,0,0,0,0,0,0,0,0,0],"id":15,"left_children":[1,3,-1,5,-1,7,9,11,-1,13,-1,15,17,19,-1,-1,-1,-1,-1,-1,-1],"loss_changes":[5.0169516E0,4.527314E0,0E0,4.241404E0,0E0,3.9336927E0,3.157317E0,3.5829442E0,0E0,1.7716169E0,0E0,4.1209626E0,9.981203E-2,9.4425106E-1,0E0,0E0,0E0,0E0,0E0,0E0,0E0],"parents":[2147483647,0,0,1,1,3,3,5,5,6,6,7,7,9,9,11,11,12,12,13,13],"right_children":[2,4,-1,6,-1,8,10,12,-1,14,-1,16,18,20,-1,-1,-1,-1,-1,-1,-1],"split_conditions":[1E0,1E0,-2.5397342E-1,1E0,-2.7237207E-1,1E0,1E0,1E0,-3.3945727E-1,1E0,1.8175042E-1,1E0,1E0,1E0,7.953167E-2,4.68803E-2,-1.4013454E-1,7.599856E-2,2.8513435E-1,-2.9175898E-1,-4.830527E-3],"split_indices":[1171,1114,0,389,0,1756,959,1366,0,147,0,1683,1750,1325,0,0,0,0,0,0,0],"split_type":[0,0,0,0,0,0,0,0,0,0,0,0,0,0,0,0,0,0,0,0,0],"sum_hessian":[1.4035176E2,1.3426305E2,6.0887194E0,1.301619E2,4.1011515E0,1.1889759E2,1.1264299E1,1.1738442E2,1.513172E0,9.861629E0,1.4026711E0,1.119834E2,5.401022E0,8.679902E0,1.1817265E0,1.0112315E2,1.0860248E1,1.1644838E0,4.2365384E0,7.465558E0,1.2143437E0],"tree_param":{"num_deleted":"0","num_feature":"2048","num_nodes":"21","size_leaf_vector":"1"}},{"base_weights":[-2.671346E-2,-7.987297E-2,5.0307137E-1,-1.5873374E-1,3.8706303E-1,1.3242163E-1,7.9597074E-1,-2.6974747E-1,2.3306371E-1,8.517289E-2,9.8968554E-1,-2.7645573E-1,4.6209452E-1,8.73714E-1,5.3774614E-2,-4.1586673E-1,2.4832635E-1,4.6064302E-1,-5.8185714E-1,-1.787481E-1,3.900579E-1,3.567835E-1,-2.2989642E-4,4.5476973E-2,-1.4978084E-1,-2.523428E-2,2.1886544E-1,3.074979E-1,7.728126E-2,-6.249742E-1,1.2357731E-1,3.6537609E-1,-2.1225767E-1,7.6084036E-1,-2.8993362E-1,-9.5606315E-1,1.6550604E-1,-4.579211E-1,1.6439426E-1,2.523791E-1,-1.23381354E-1,-2.2819792E-1,1.7899488E-1,7.5189956E-2,-2.793088E-1,-1.1534838E-2,2.5994518E-1,-1.6666764E-1,2.741092E-1,-5.5755526E-3,-2.3206057E-1,-4.3730065E-1,6.309081E-2,-2.2996797E-1,-4.1879243E-3,-1.9469751E-1,9.5759936E-2],"categories":[],"categories_nodes":[],"categories_segments":[],"categories_sizes":[],"default_left":[0,0,0,0,0,0,0,0,0,0,0,0,0,0,0,0,0,0,0,0,0,0,0,0,0,0,0,0,0,0,0,0,0,0,0,0,0,0,0,0,0,0,0,0,0,0,0,0,0,0,0,0,0,0,0,0,0],"id":16,"left_children":[1,3,5,7,9,11,13,15,17,19,21,23,25,27,-1,29,31,33,35,37,39,-1,-1,-1,-1,-1,-1,-1,-1,41,43,45,-1,47,49,51,-1,53,-1,-1,55,-1,-1,-1,-1,-1,-1,-1,-1,-1,-1,-1,-1,-1,-1,-1,-1],"loss_changes":[3.8777714E0,4.6532593E0,1.2584782E0,4.7338543E0,3.246477E0,1.0369537E0,1.7028236E-1,6.4730597E0,4.7648644E0,1.1392668E0,1.1902862E0,4.225156E-1,6.6156965E-1,2.7622843E-1,0E0,7.5229406E0,2.399661E0,4.6170626E0,2.9601264E0,1.835521E0,1.6053684E0,0E0,0E0,0E0,0E0,0E0,0E0,0E0,0E0,8.365921E0,2.8159375E0,3.6169379E0,0E0,3.36767E0,8.12141E-1,3.0431867E0,0E0,8.371296E-1,0E0,0E0,1.1152849E0,0E0,0E0,0E0,0E0,0E0,0E0,0E0,0E0,0E0,0E0,0E0,0E0,0E0,0E0,0E0,0E0],"parents":[2147483647,0,0,1,1,2,2,3,3,4,4,5,5,6,6,7,7,8,8,9,9,10,10,11,11,12,12,13,13,15,15,16,16,17,17,18,18,19,19,20,20,29,29,30,30,31,31,33,33,34,34,35,35,37,37,40,40],"right_children":[2,4,6,8,10,12,14,16,18,20,22,24,26,28,-1,30,32,34,36,38,40,-1,-1,-1,-1,-1,-1,-1,-1,42,44,46,-1,48,50,52,-1,54,-1,-1,56,-1,-1,-1,-1,-1,-1,-1,-1,-1,-1,-1,-1,-1,-1,-1,-1],"split_conditions":[1E0,1E0,1E0,1E0,1E0,1E0,1E0,1E0,1E0,1E0,1E0,1E0,1E0,1E0,5.3774614E-2,1E0,1E0,1E0,1E0,1E0,1E0,3.567835E-1,-2.2989642E-4,4.5476973E-2,-1.4978084E-1,-2.523428E-2,2.1886544E-1,3.074979E-1,7.728126E-2,1E0,1E0,1E0,-2.1225767E-1,1E0,1E0,1E0,1.6550604E-1,1E0,1.6439426E-1,2.523791E-1,1E0,-2.2819792E-1,1.7899488E-1,7.5189956E-2,-2.793088E-1,-1.1534838E-2,2.5994518E-1,-1.6666764E-1,2.741092E-1,-5.5755526E-3,-2.3206057E-1,-4.3730065E-1,6.309081E-2,-2.2996797E-1,-4.1879243E-3,-1.9469751E-1,9.5759936E-2],"split_indices":[959,1671,1385,1854,807,1603,114,1954,1132,875,935,1243,896,866,0,1928,114,783,340,1132,406,0,0,0,0,0,0,0,0,1860,809,1057,0,725,283,366,0,423,0,0,423,0,0,0,0,0,0,0,0,0,0,0,0,0,0,0,0],"split_type":[0,0,0,0,0,0,0,0,0,0,0,0,0,0,0,0,0,0,0,0,0,0,0,0,0,0,0,0,0,0,0,0,0,0,0,0,0,0,0,0,0,0,0,0,0,0,0,0,0,0,0,0,0,0,0,0,0],"sum_hessian":[1.3526302E2,1.2369999E2,1.1563032E1,1.0639158E2,1.7308407E1,5.7450542E0,5.8179774E0,8.314453E1,2.324705E1,1.2291958E1,5.01645E0,2.6365244E0,3.1085298E0,4.7966156E0,1.021362E0,6.500702E1,1.8137516E1,1.8512018E1,4.7350297E0,6.810354E0,5.481603E0,4.0080223E0,1.0084277E0,1.0120121E0,1.6245124E0,1.2471222E0,1.8614076E0,3.3182123E0,1.4784034E0,4.673308E1,1.8273935E1,1.6709131E1,1.4283841E0,1.3213522E1,5.298497E0,3.6775627E0,1.057467E0,5.1874733E0,1.6228809E0,2.5777833E0,2.9038196E0,4.2400955E1,4.3321276E0,1.698944E1,1.2844932E0,9.763962E0,6.94517E0,1.1006093E0,1.2112912E1,4.059273E0,1.2392242E0,2.396972E0,1.2805908E0,2.6314628E0,2.5560107E0,1.1142064E0,1.7896132E0],"tree_param":{"num_deleted":"0","num_feature":"2048","num_nodes":"57","size_leaf_vector":"1"}},{"base_weights":[-1.4708902E-2,-5.0314996E-2,8.7515366E-1,-3.0074573E-1,7.000607E-2,6.525786E-2,3.1537044E-1,-3.8935876E-1,6.349106E-1,1.2817147E-1,-7.773127E-1,-6.023981E-1,4.9419627E-2,1.2004066E-2,2.5613952E-1,5.314895E-2,7.587083E-1,-1.0163823E0,-6.968458E-2,-7.0278734E-1,1.4647803E-1,-1.2184539E-1,4.3294352E-1,4.6735667E-3,3.0692157E-1,3.0699605E-1,6.0716465E-2,-3.6936307E-1,-7.509597E-2,-2.3755728E-1,1.6703017E-1,2.8867094E-2,-2.588886E-1,-2.2300517E-3,2.1017702E-1,-1.4841337E-2,2.7735808E-1,-1.3983469E-1,1.5449664E-1],"categories":[],"categories_nodes":[],"categories_segments":[],"categories_sizes":[],"default_left":[0,0,0,0,0,0,0,0,0,0,0,0,0,0,0,0,0,0,0,0,0,0,0,0,0,0,0,0,0,0,0,0,0,0,0,0,0,0,0],"id":17,"left_children":[1,3,5,7,9,-1,-1,11,13,15,17,19,21,-1,-1,23,25,27,-1,29,-1,31,33,35,-1,-1,37,-1,-1,-1,-1,-1,-1,-1,-1,-1,-1,-1,-1],"loss_changes":[4.0929484E0,3.7519357E0,3.4693122E-1,3.5944765E0,4.261514E0,0E0,0E0,3.5350504E0,4.7013903E-1,3.738346E0,4.8917508E-1,3.115283E0,9.184871E-1,0E0,0E0,3.4021668E0,1.4927082E0,2.797792E-1,0E0,3.0879192E0,0E0,1.681704E0,5.106628E-1,3.5329418E0,0E0,0E0,1.048295E0,0E0,0E0,0E0,0E0,0E0,0E0,0E0,0E0,0E0,0E0,0E0,0E0],"parents":[2147483647,0,0,1,1,2,2,3,3,4,4,7,7,8,8,9,9,10,10,11,11,12,12,15,15,16,16,17,17,19,19,21,21,22,22,23,23,26,26],"right_children":[2,4,6,8,10,-1,-1,12,14,16,18,20,22,-1,-1,24,26,28,-1,30,-1,32,34,36,-1,-1,38,-1,-1,-1,-1,-1,-1,-1,-1,-1,-1,-1,-1],"split_conditions":[1E0,1E0,1E0,1E0,1E0,6.525786E-2,3.1537044E-1,1E0,1E0,1E0,1E0,1E0,1E0,1.2004066E-2,2.5613952E-1,1E0,1E0,1E0,-6.968458E-2,1E0,1.4647803E-1,1E0,1E0,1E0,3.0692157E-1,3.0699605E-1,1E0,-3.6936307E-1,-7.509597E-2,-2.3755728E-1,1.6703017E-1,2.8867094E-2,-2.588886E-1,-2.2300517E-3,2.1017702E-1,-1.4841337E-2,2.7735808E-1,-1.3983469E-1,1.5449664E-1],"split_indices":[1648,294,345,2000,1453,0,0,625,694,1954,1444,1189,642,0,0,698,233,875,0,443,0,838,784,1891,0,0,409,0,0,0,0,0,0,0,0,0,0,0,0],"split_type":[0,0,0,0,0,0,0,0,0,0,0,0,0,0,0,0,0,0,0,0,0,0,0,0,0,0,0,0,0,0,0,0,0,0,0,0,0,0,0],"sum_hessian":[1.2678838E2,1.22817535E2,3.9708438E0,3.937166E1,8.344588E1,1.3107668E0,2.6600769E0,3.6498833E1,2.8728228E0,7.88798E1,4.5660834E0,2.4318579E1,1.2180256E1,1.0908623E0,1.7819606E0,7.1461464E1,7.418336E0,2.572763E0,1.9933203E0,2.2594505E1,1.724073E0,8.891846E0,3.2884095E0,6.9016914E1,2.4445498E0,5.0411296E0,2.3772063E0,1.535084E0,1.0376788E0,2.1449041E1,1.1454632E0,7.542636E0,1.3492105E0,1.6106021E0,1.6778072E0,6.607387E1,2.9430418E0,1.088626E0,1.2885803E0],"tree_param":{"num_deleted":"0","num_feature":"2048","num_nodes":"39","size_leaf_vector":"1"}},{"base_weights":[-1.3880258E-3,-2.729169E-2,2.9221496E-1,-4.9552068E-2,3.4403265E-1,-7.404122E-2,2.9498985E-1,-1.7471075E-1,2.323096E-1,-3.7034133E-1,1.3302714E-1,3.6860743E-1,-2.7581704E-1,-1.349069E-1,2.4665342E-1,-3.730634E-3,1.6511944E-1,1.671101E-1,-1.0681897E-1],"categories":[],"categories_nodes":[],"categories_segments":[],"categories_sizes":[],"default_left":[0,0,0,0,0,0,0,0,0,0,0,0,0,0,0,0,0,0,0],"id":18,"left_children":[1,3,-1,5,-1,7,-1,9,11,13,15,17,-1,-1,-1,-1,-1,-1,-1],"loss_changes":[3.114214E0,3.1933E0,0E0,3.0760527E0,0E0,3.6462734E0,0E0,5.381377E0,4.945492E0,5.518385E0,2.1413171E0,3.8789034E0,0E0,0E0,0E0,0E0,0E0,0E0,0E0],"parents":[2147483647,0,0,1,1,3,3,5,5,7,7,8,8,9,9,10,10,11,11],"right_children":[2,4,-1,6,-1,8,-1,10,12,14,16,18,-1,-1,-1,-1,-1,-1,-1],"split_conditions":[1E0,1E0,2.9221496E-1,1E0,3.4403265E-1,1E0,2.9498985E-1,1E0,1E0,1E0,1E0,1E0,-2.7581704E-1,-1.349069E-1,2.4665342E-1,-3.730634E-3,1.6511944E-1,1.671101E-1,-1.0681897E-1],"split_indices":[1957,850,0,1454,0,606,0,896,84,956,636,711,0,0,0,0,0,0,0],"split_type":[0,0,0,0,0,0,0,0,0,0,0,0,0,0,0,0,0,0,0],"sum_hessian":[1.211981E2,1.19009705E2,2.188393E0,1.1773524E2,1.2744718E0,1.1591517E2,1.8200617E0,8.7568954E1,2.8346216E1,5.3411533E1,3.415742E1,2.5954569E1,2.391647E0,5.066338E1,2.7481523E0,2.6049002E1,8.10842E0,2.0782188E1,5.1723804E0],"tree_param":{"num_deleted":"0","num_feature":"2048","num_nodes":"19","size_leaf_vector":"1"}},{"base_weights":[8.792864E-3,-1.4498018E-2,3.2861432E-1,5.4710932E-2,-4.2688376E-1,1.788652E-2,2.6710868E-1,-6.283461E-1,3.6561266E-1,-2.051256E-2,2.6805365E-1,-9.0336174E-1,1.2116539E-1,-4.661413E-2,2.2402473E-1,-1.4376773E-1,2.6149827E-1,-1.0547094E0,7.369765E-2,1.1661701E-1,-1.2119316E-1,-1.2147508E-1,2.168248E-2,1.1887879E-1,-1.5738057E-1,-1.7506751E-1,-4.9951735E-1],"categories":[],"categories_nodes":[],"categories_segments":[],"categories_sizes":[],"default_left":[0,0,0,0,0,0,0,0,0,0,0,0,0,0,0,0,0,0,0,0,0,0,0,0,0,0,0],"id":19,"left_children":[1,3,-1,5,7,9,-1,11,13,15,-1,17,19,-1,-1,21,23,25,-1,-1,-1,-1,-1,-1,-1,-1,-1],"loss_changes":[3.002085E0,3.3485599E0,0E0,3.0813296E0,2.921025E0,3.2939997E0,0E0,2.9556265E0,9.1999316E-1,3.3156614E0,0E0,2.0363073E0,8.017044E-1,0E0,0E0,3.7682176E0,3.2839992E0,1.6794443E0,0E0,0E0,0E0,0E0,0E0,0E0,0E0,0E0,0E0],"parents":[2147483647,0,0,1,1,3,3,4,4,5,5,7,7,8,8,9,9,11,11,12,12,15,15,16,16,17,17],"right_children":[2,4,-1,6,8,10,-1,12,14,16,-1,18,20,-1,-1,22,24,26,-1,-1,-1,-1,-1,-1,-1,-1,-1],"split_conditions":[1E0,1E0,3.2861432E-1,1E0,1E0,1E0,2.6710868E-1,1E0,1E0,1E0,2.6805365E-1,1E0,1E0,-4.661413E-2,2.2402473E-1,1E0,1E0,1E0,7.369765E-2,1.1661701E-1,-1.2119316E-1,-1.2147508E-1,2.168248E-2,1.1887879E-1,-1.5738057E-1,-1.7506751E-1,-4.9951735E-1],"split_indices":[594,1722,0,1347,1039,1648,0,1910,1603,926,0,975,147,0,0,102,656,1444,0,0,0,0,0,0,0,0,0],"split_type":[0,0,0,0,0,0,0,0,0,0,0,0,0,0,0,0,0,0,0,0,0,0,0,0,0,0,0],"sum_hessian":[1.1699635E2,1.1550713E2,1.4892236E0,9.9650536E1,1.5856597E1,9.64229E1,3.2276368E0,1.2807821E1,3.0487752E0,9.3307625E1,3.1152744E0,9.219628E0,3.5881937E0,1.5383104E0,1.5104649E0,6.527072E1,2.8036903E1,8.219098E0,1.0005304E0,2.5491753E0,1.0390185E0,2.9154701E1,3.611602E1,2.4357168E1,3.679735E0,5.742416E0,2.4766817E0],"tree_param":{"num_deleted":"0","num_feature":"2048","num_nodes":"27","size_leaf_vector":"1"}},{"base_weights":[1.036889E-2,4.1770767E-2,-2.1917062E-1,6.680168E-2,-2.5792623E-1,1.19212106E-1,-4.0632328E-1,5.1142797E-2,8.032713E-1,-6.0826206E-1,1.2594424E-1,5.085061E-3,7.48275E-1,8.9760184E-1,5.5326384E-2,-7.2898275E-1,-8.9190856E-2,1.574732E-1,-8.6520955E-2,-3.41248E-2,8.574077E-2,-8.082419E-2,3.127693E-1,1.0077543E-1,3.0216104E-1,-2.634522E-1,-1.6582662E-2],"categories":[],"categories_nodes":[],"categories_segments":[],"categories_sizes":[],"default_left":[0,0,0,0,0,0,0,0,0,0,0,0,0,0,0,0,0,0,0,0,0,0,0,0,0,0,0],"id":20,"left_children":[1,3,-1,5,-1,7,9,11,13,15,17,19,21,23,-1,25,-1,-1,-1,-1,-1,-1,-1,-1,-1,-1,-1],"loss_changes":[2.68793E0,2.5513551E0,0E0,2.7378645E0,0E0,4.5415006E0,1.2635921E0,2.9044728E0,3.5044527E-1,9.0244055E-2,7.9044867E-1,2.900392E0,1.9599974E0,1.1790514E-1,0E0,4.7430205E-1,0E0,0E0,0E0,0E0,0E0,0E0,0E0,0E0,0E0,0E0,0E0],"parents":[2147483647,0,0,1,1,3,3,5,5,6,6,7,7,8,8,9,9,10,10,11,11,12,12,13,13,15,15],"right_children":[2,4,-1,6,-1,8,10,12,14,16,18,20,22,24,-1,26,-1,-1,-1,-1,-1,-1,-1,-1,-1,-1,-1],"split_conditions":[1E0,1E0,-2.1917062E-1,1E0,-2.5792623E-1,1E0,1E0,1E0,1E0,1E0,1E0,1E0,1E0,1E0,5.5326384E-2,1E0,-8.9190856E-2,1.574732E-1,-8.6520955E-2,-3.41248E-2,8.574077E-2,-8.082419E-2,3.127693E-1,1.0077543E-1,3.0216104E-1,-2.634522E-1,-1.6582662E-2],"split_indices":[314,914,0,728,0,931,184,1357,443,1158,1546,310,1970,1143,0,1385,0,0,0,0,0,0,0,0,0,0,0],"split_type":[0,0,0,0,0,0,0,0,0,0,0,0,0,0,0,0,0,0,0,0,0,0,0,0,0,0,0],"sum_hessian":[1.1321467E2,1.0951683E2,3.697838E0,1.0745912E2,2.0577102E0,9.741591E1,1.0043216E1,8.957704E1,7.838862E0,7.177387E0,2.865828E0,8.497055E1,4.606492E0,6.4111786E0,1.4276834E0,4.201843E0,2.9755447E0,1.3240709E0,1.5417571E0,6.011657E1,2.4853981E1,1.0522404E0,3.5542517E0,1.7104427E0,4.700736E0,3.1915784E0,1.0102643E0],"tree_param":{"num_deleted":"0","num_feature":"2048","num_nodes":"27","size_leaf_vector":"1"}},{"base_weights":[8.469086E-3,-3.6413707E-2,5.416832E-1,-2.8882688E-1,7.673849E-2,8.17032E-1,8.107322E-2,-5.0398755E-1,2.8335363E-1,1.2452358E-1,-8.4252673E-1,6.7793004E-2,3.1033087E-1,1.8973583E-1,-1.0288345E-1,-7.0954895E-1,1.1164574E-1,4.8924756E-1,-1.6997918E-1,9.130485E-2,3.5308972E-1,-3.8344818E-1,-2.9322019E-2,-8.118243E-1,1.1585446E-1,3.4798935E-1,-2.9921907E-1,5.2128476E-3,2.3720548E-1,1.3129348E-1,-3.2818788E-1,-2.9434437E-1,1.0368828E-2,2.7089676E-2,-2.3298962E-1,-4.50399E-2,6.0769945E-2,2.8209297E-2,3.0310434E-1],"categories":[],"categories_nodes":[],"categories_segments":[],"categories_sizes":[],"default_left":[0,0,0,0,0,0,0,0,0,0,0,0,0,0,0,0,0,0,0,0,0,0,0,0,0,0,0,0,0,0,0,0,0,0,0,0,0,0,0],"id":21,"left_children":[1,3,5,7,9,11,13,15,17,19,21,-1,-1,-1,-1,23,25,27,-1,29,-1,-1,-1,31,-1,-1,33,35,-1,37,-1,-1,-1,-1,-1,-1,-1,-1,-1],"loss_changes":[2.671312E0,2.9677002E0,1.032738E0,4.098564E0,3.2676406E0,4.489503E-1,1.2343898E0,3.0798311E0,1.9258623E0,2.3157682E0,1.0711687E0,0E0,0E0,0E0,0E0,2.3207817E0,3.2756724E0,1.1806973E0,0E0,3.3797188E0,0E0,0E0,0E0,2.4279165E0,0E0,0E0,1.1263449E0,1.5681441E-1,0E0,2.0976863E0,0E0,0E0,0E0,0E0,0E0,0E0,0E0,0E0,0E0],"parents":[2147483647,0,0,1,1,2,2,3,3,4,4,5,5,6,6,7,7,8,8,9,9,10,10,15,15,16,16,17,17,19,19,23,23,26,26,27,27,29,29],"right_children":[2,4,6,8,10,12,14,16,18,20,22,-1,-1,-1,-1,24,26,28,-1,30,-1,-1,-1,32,-1,-1,34,36,-1,38,-1,-1,-1,-1,-1,-1,-1,-1,-1],"split_conditions":[1E0,1E0,1E0,1E0,1E0,1E0,1E0,1E0,1E0,1E0,1E0,6.7793004E-2,3.1033087E-1,1.8973583E-1,-1.0288345E-1,1E0,1E0,1E0,-1.6997918E-1,1E0,3.5308972E-1,-3.8344818E-1,-2.9322019E-2,1E0,1.1585446E-1,3.4798935E-1,1E0,1E0,2.3720548E-1,1E0,-3.2818788E-1,-2.9434437E-1,1.0368828E-2,2.7089676E-2,-2.3298962E-1,-4.50399E-2,6.0769945E-2,2.8209297E-2,3.0310434E-1],"split_indices":[939,695,298,772,1456,674,1279,1671,577,1100,882,0,0,0,0,1649,1380,591,0,1544,0,0,0,1447,0,0,1445,959,0,882,0,0,0,0,0,0,0,0,0],"split_type":[0,0,0,0,0,0,0,0,0,0,0,0,0,0,0,0,0,0,0,0,0,0,0,0,0,0,0,0,0,0,0,0,0,0,0,0,0,0,0],"sum_hessian":[1.0979609E2,1.0213102E2,7.665073E0,3.1131706E1,7.099931E1,4.3129954E0,3.3520772E0,2.2710802E1,8.420905E0,6.831283E1,2.686486E0,1.708242E0,2.6047535E0,1.2434996E0,2.1085775E0,1.691147E1,5.79933E0,7.1204205E0,1.3004848E0,6.7276115E1,1.0367126E0,1.2431883E0,1.4432977E0,1.5704698E1,1.2067732E0,1.1195583E0,4.679772E0,3.1229765E0,3.9974442E0,6.594063E1,1.3354858E0,1.2953978E1,2.7507205E0,3.0236526E0,1.6561195E0,1.8813505E0,1.2416259E0,6.432107E1,1.6195564E0],"tree_param":{"num_deleted":"0","num_feature":"2048","num_nodes":"39","size_leaf_vector":"1"}},{"base_weights":[8.551279E-3,3.3548977E-2,-2.3508735E-1,5.765135E-3,2.2053076E-1,-1.4968547E-2,3.040124E-1,-3.802373E-2,2.480851E-1,-6.615685E-2,7.011619E-1,-2.7634108E-2,2.1818312E-1,3.1371605E-2,2.8304976E-1],"categories":[],"categories_nodes":[],"categories_segments":[],"categories_sizes":[],"default_left":[0,0,0,0,0,0,0,0,0,0,0,0,0,0,0],"id":22,"left_children":[1,3,-1,5,-1,7,-1,9,-1,11,13,-1,-1,-1,-1],"loss_changes":[2.1367977E0,2.0282977E0,0E0,2.1317177E0,0E0,1.9774427E0,0E0,2.0955498E0,0E0,2.040806E0,4.3612933E-1,0E0,0E0,0E0,0E0],"parents":[2147483647,0,0,1,1,3,3,5,5,7,7,9,9,10,10],"right_children":[2,4,-1,6,-1,8,-1,10,-1,12,14,-1,-1,-1,-1],"split_conditions":[1E0,1E0,-2.3508735E-1,1E0,2.2053076E-1,1E0,3.040124E-1,1E0,2.480851E-1,1E0,1E0,-2.7634108E-2,2.1818312E-1,3.1371605E-2,2.8304976E-1],"split_indices":[1114,119,0,33,0,1454,0,1686,0,698,1003,0,0,0,0],"split_type":[0,0,0,0,0,0,0,0,0,0,0,0,0,0,0],"sum_hessian":[1.0557748E2,1.0327617E2,2.3013072E0,1.00311714E2,2.964458E0,9.9254486E1,1.0572251E0,9.753832E1,1.7161616E0,9.483928E1,2.6990457E0,9.269084E1,2.1484358E0,1.1931772E0,1.5058683E0],"tree_param":{"num_deleted":"0","num_feature":"2048","num_nodes":"15","size_leaf_vector":"1"}},{"base_weights":[1.6364397E-2,4.1971534E-2,-2.1182917E-1,6.157718E-2,-2.5434536E-1,2.0660402E-2,5.863219E-1,-2.9036041E-2,4.9341053E-1,6.7822075E-1,1.5493532E-3,4.198024E-3,-7.832303E-1,1.6110753E-1,7.5368094E-1,2.4800074E-1,2.2596382E-2,1.5436678E-2,-1.6983631E-1,-3.5065615E-1,-3.1863555E-2,-6.1266672E-2,1.5149052E-1,2.8028974E-1,2.5606519E-2],"categories":[],"categories_nodes":[],"categories_segments":[],"categories_sizes":[],"default_left":[0,0,0,0,0,0,0,0,0,0,0,0,0,0,0,0,0,0,0,0,0,0,0,0,0],"id":23,"left_children":[1,3,-1,5,-1,7,9,11,13,15,-1,17,19,21,23,-1,-1,-1,-1,-1,-1,-1,-1,-1,-1],"loss_changes":[1.9881262E0,1.8522298E0,0E0,2.1755776E0,0E0,2.259354E0,3.881743E-1,2.1942704E0,6.695366E-1,5.037906E-1,0E0,2.3124297E0,8.4042835E-1,7.675009E-1,5.065E-1,0E0,0E0,0E0,0E0,0E0,0E0,0E0,0E0,0E0,0E0],"parents":[2147483647,0,0,1,1,3,3,5,5,6,6,7,7,8,8,9,9,11,11,12,12,13,13,14,14],"right_children":[2,4,-1,6,-1,8,10,12,14,16,-1,18,20,22,24,-1,-1,-1,-1,-1,-1,-1,-1,-1,-1],"split_conditions":[1E0,1E0,-2.1182917E-1,1E0,-2.5434536E-1,1E0,1E0,1E0,1E0,1E0,1.5493532E-3,1E0,1E0,1E0,1E0,2.4800074E-1,2.2596382E-2,1.5436678E-2,-1.6983631E-1,-3.5065615E-1,-3.1863555E-2,-6.1266672E-2,1.5149052E-1,2.8028974E-1,2.5606519E-2],"split_indices":[1171,1756,0,67,0,959,1453,1456,1385,145,0,389,674,1603,1446,0,0,0,0,0,0,0,0,0,0],"split_type":[0,0,0,0,0,0,0,0,0,0,0,0,0,0,0,0,0,0,0,0,0,0,0,0,0],"sum_hessian":[1.0486335E2,1.0218343E2,2.6799145E0,1.0089119E2,1.2922435E0,9.455748E1,6.333712E0,8.641223E1,8.145247E0,5.324696E0,1.0090159E0,8.371759E1,2.6946368E0,4.288658E0,3.856589E0,3.9748394E0,1.3498567E0,7.81516E1,5.565992E0,1.2539349E0,1.4407021E0,2.2763138E0,2.0123444E0,2.722777E0,1.1338121E0],"tree_param":{"num_deleted":"0","num_feature":"2048","num_nodes":"25","size_leaf_vector":"1"}},{"base_weights":[8.884398E-3,-1.4960779E-2,2.0989065E-1,-3.9131235E-2,2.0351562E-1,-8.456972E-3,-2.5898397E-1,-5.53917E-2,4.0540835E-1,-1.02417916E-1,4.354908E-1,7.533373E-1,-1.8545945E-1,-6.94414E-2,3.7303012E-2,1.8005121E-1,-6.080692E-2,5.3749125E-2,3.386147E-1],"categories":[],"categories_nodes":[],"categories_segments":[],"categories_sizes":[],"default_left":[0,0,0,0,0,0,0,0,0,0,0,0,0,0,0,0,0,0,0],"id":24,"left_children":[1,3,-1,5,-1,7,-1,9,11,13,15,17,-1,-1,-1,-1,-1,-1,-1],"loss_changes":[1.7178196E0,1.7221321E0,0E0,2.488226E0,0E0,1.8907684E0,0E0,2.0590725E0,3.997527E0,2.3829827E0,9.4344544E-1,1.4901147E0,0E0,0E0,0E0,0E0,0E0,0E0,0E0],"parents":[2147483647,0,0,1,1,3,3,5,5,7,7,8,8,9,9,10,10,11,11],"right_children":[2,4,-1,6,-1,8,-1,10,12,14,16,18,-1,-1,-1,-1,-1,-1,-1],"split_conditions":[1E0,1E0,2.0989065E-1,1E0,2.0351562E-1,1E0,-2.5898397E-1,1E0,1E0,1E0,1E0,1E0,-1.8545945E-1,-6.94414E-2,3.7303012E-2,1.8005121E-1,-6.080692E-2,5.3749125E-2,3.386147E-1],"split_indices":[1278,340,0,84,0,1555,0,939,706,896,1453,1991,0,0,0,0,0,0,0],"split_type":[0,0,0,0,0,0,0,0,0,0,0,0,0,0,0,0,0,0,0],"sum_hessian":[1.0265758E2,1.0017772E2,2.4798589E0,9.771488E1,2.4628363E0,9.518251E1,2.5323682E0,8.626565E1,8.916864E0,7.944612E1,6.819526E0,6.8519044E0,2.0649602E0,5.0617905E1,2.8828217E1,5.468072E0,1.351454E0,3.2927096E0,3.5591948E0],"tree_param":{"num_deleted":"0","num_feature":"2048","num_nodes":"19","size_leaf_vector":"1"}},{"base_weights":[1.283279E-2,-8.772444E-3,2.4097347E-1,-2.9259395E-2,2.5255474E-1,9.294833E-3,-5.873434E-1,-1.7281005E-2,2.2290987E-1,-2.3885943E-1,2.623914E-3,-3.7940178E-2,2.7063212E-1,-1.912389E-2,2.0716351E-1],"categories":[],"categories_nodes":[],"categories_segments":[],"categories_sizes":[],"default_left":[0,0,0,0,0,0,0,0,0,0,0,0,0,0,0],"id":25,"left_children":[1,3,-1,5,-1,7,9,11,-1,-1,-1,13,-1,-1,-1],"loss_changes":[1.7356303E0,1.7589085E0,0E0,2.117187E0,0E0,1.8221594E0,7.9846E-1,1.7535636E0,0E0,0E0,0E0,1.7263999E0,0E0,0E0,0E0],"parents":[2147483647,0,0,1,1,3,3,5,5,6,6,7,7,11,11],"right_children":[2,4,-1,6,-1,8,10,12,-1,-1,-1,14,-1,-1,-1],"split_conditions":[1E0,1E0,2.4097347E-1,1E0,2.5255474E-1,1E0,1E0,1E0,2.2290987E-1,-2.3885943E-1,2.623914E-3,1E0,2.7063212E-1,-1.912389E-2,2.0716351E-1],"split_indices":[1957,594,0,935,0,1686,866,444,0,0,0,168,0,0,0],"split_type":[0,0,0,0,0,0,0,0,0,0,0,0,0,0,0],"sum_hessian":[1.002227E2,9.8518684E1,1.7040219E0,9.7144585E1,1.3740945E0,9.1786995E1,5.3575945E0,8.952101E1,2.265984E0,3.7188885E0,1.6387057E0,8.8491295E1,1.0297163E0,8.634507E1,2.1462235E0],"tree_param":{"num_deleted":"0","num_feature":"2048","num_nodes":"15","size_leaf_vector":"1"}},{"base_weights":[1.849934E-2,3.564094E-2,-2.49169E-1,9.178056E-3,2.1213745E-1,-1.5532891E-2,2.494231E-1,1.2657903E-2,-5.7279396E-1,6.460022E-2,-3.1137273E-1,-2.3482133E-1,1.061411E-2,9.917661E-3,2.3273204E-1,-1.6293709E-1,1.01612784E-1],"categories":[],"categories_nodes":[],"categories_segments":[],"categories_sizes":[],"default_left":[0,0,0,0,0,0,0,0,0,0,0,0,0,0,0,0,0],"id":26,"left_children":[1,3,-1,5,-1,7,-1,9,11,13,15,-1,-1,-1,-1,-1,-1],"loss_changes":[1.4849099E0,1.7521785E0,0E0,1.9681761E0,0E0,1.4903381E0,0E0,1.5490131E0,6.108818E-1,1.7490602E0,2.1005597E0,0E0,0E0,0E0,0E0,0E0,0E0],"parents":[2147483647,0,0,1,1,3,3,5,5,7,7,8,8,9,9,10,10],"right_children":[2,4,-1,6,-1,8,-1,10,12,14,16,-1,-1,-1,-1,-1,-1],"split_conditions":[1E0,1E0,-2.49169E-1,1E0,2.1213745E-1,1E0,2.494231E-1,1E0,1E0,1E0,1E0,-2.3482133E-1,1.061411E-2,9.917661E-3,2.3273204E-1,-1.6293709E-1,1.01612784E-1],"split_indices":[1763,584,0,22,0,1060,0,1722,1722,1347,1854,0,0,0,0,0,0],"split_type":[0,0,0,0,0,0,0,0,0,0,0,0,0,0,0,0,0],"sum_hessian":[9.899165E1,9.797174E1,1.0199138E0,9.5232346E1,2.7393966E0,9.3406265E1,1.8260753E0,8.9838776E1,3.5674899E0,7.811718E1,1.1721599E1,2.4386363E0,1.1288537E0,7.5801765E1,2.3154106E0,8.762384E0,2.9592144E0],"tree_param":{"num_deleted":"0","num_feature":"2048","num_nodes":"17","size_leaf_vector":"1"}},{"base_weights":[1.5362309E-2,3.569372E-2,-2.1273293E-1,-3.826826E-3,5.146881E-1,-2.9295594E-2,2.310406E-1,3.79868E-2,2.721142E-1,-2.6103345E-1,6.1355226E-2,1.0067197E-1,-1.07150815E-1,-4.2111307E-1,2.687668E-1,2.1131344E-2,2.4065973E-1,-1.5296936E-1,1.7351592E-1,-5.1188502E-2,1.8773642E-1,1.746157E-2,-2.0847957E-1],"categories":[],"categories_nodes":[],"categories_segments":[],"categories_sizes":[],"default_left":[0,0,0,0,0,0,0,0,0,0,0,0,0,0,0,0,0,0,0,0,0,0,0],"id":27,"left_children":[1,3,-1,5,7,9,-1,11,-1,13,15,-1,-1,17,19,21,-1,-1,-1,-1,-1,-1,-1],"loss_changes":[1.474059E0,1.8310703E0,0E0,1.8015946E0,1.3443753E0,1.8717934E0,0E0,6.339678E-1,0E0,2.2359958E0,1.8994553E0,0E0,0E0,2.0352716E0,1.1136554E0,1.687041E0,0E0,0E0,0E0,0E0,0E0,0E0,0E0],"parents":[2147483647,0,0,1,1,3,3,4,4,5,5,7,7,9,9,10,10,13,13,14,14,15,15],"right_children":[2,4,-1,6,8,10,-1,12,-1,14,16,-1,-1,18,20,22,-1,-1,-1,-1,-1,-1,-1],"split_conditions":[1E0,1E0,-2.1273293E-1,1E0,1E0,1E0,2.310406E-1,1E0,2.721142E-1,1E0,1E0,1.0067197E-1,-1.07150815E-1,1E0,1E0,1E0,2.4065973E-1,-1.5296936E-1,1.7351592E-1,-5.1188502E-2,1.8773642E-1,1.746157E-2,-2.0847957E-1],"split_indices":[1809,939,0,1239,674,695,0,1279,0,222,1963,0,0,415,310,543,0,0,0,0,0,0,0],"split_type":[0,0,0,0,0,0,0,0,0,0,0,0,0,0,0,0,0,0,0,0,0,0,0],"sum_hessian":[9.735667E1,9.562383E1,1.732833E0,8.925191E1,6.371926E0,8.7339966E1,1.9119473E0,3.3719513E0,2.9999745E0,2.4030176E1,6.3309788E1,2.009448E0,1.3625033E0,1.8611763E1,5.418413E0,6.102498E1,2.2848084E0,1.7543255E1,1.0685066E0,2.663031E0,2.7553823E0,5.889446E1,2.1305218E0],"tree_param":{"num_deleted":"0","num_feature":"2048","num_nodes":"23","size_leaf_vector":"1"}},{"base_weights":[1.7528355E-2,3.9009213E-2,-6.3313925E-1,8.311958E-3,6.3940567E-1,-2.888538E-3,-2.8428772E-1,3.4128614E-2,-2.1580192E-1,2.781013E-1,2.707924E-1,-1.8694409E-3,4.9126047E-1,-5.366618E-2,1.9026199E-1,-6.1527483E-2,3.2031092E-1,5.8838767E-1,1.7598173E-2,-1.532507E-3,-2.2651277E-1,1.6489303E-1,-3.2771427E-2,6.3670054E-2,2.4008305E-1],"categories":[],"categories_nodes":[],"categories_segments":[],"categories_sizes":[],"default_left":[0,0,0,0,0,0,0,0,0,0,0,0,0,0,0,0,0,0,0,0,0,0,0,0,0],"id":28,"left_children":[1,3,5,7,9,-1,-1,11,-1,13,-1,15,17,-1,-1,19,21,23,-1,-1,-1,-1,-1,-1,-1],"loss_changes":[1.3732029E0,1.7334124E0,6.068642E-1,1.7295986E0,1.8415427E-1,0E0,0E0,1.4590505E0,0E0,6.6250014E-1,0E0,1.6176466E0,2.374264E-1,0E0,0E0,2.7736585E0,1.3554723E0,2.4259543E-1,0E0,0E0,0E0,0E0,0E0,0E0,0E0],"parents":[2147483647,0,0,1,1,2,2,3,3,4,4,7,7,9,9,11,11,12,12,15,15,16,16,17,17],"right_children":[2,4,6,8,10,-1,-1,12,-1,14,-1,16,18,-1,-1,20,22,24,-1,-1,-1,-1,-1,-1,-1],"split_conditions":[1E0,1E0,1E0,1E0,1E0,-2.888538E-3,-2.8428772E-1,1E0,-2.1580192E-1,1E0,2.707924E-1,1E0,1E0,-5.366618E-2,1.9026199E-1,1E0,1E0,1E0,1.7598173E-2,-1.532507E-3,-2.2651277E-1,1.6489303E-1,-3.2771427E-2,6.3670054E-2,2.4008305E-1],"split_indices":[1120,1366,674,1017,1729,0,0,67,0,1928,0,694,145,0,0,1088,1473,1279,0,0,0,0,0,0,0],"split_type":[0,0,0,0,0,0,0,0,0,0,0,0,0,0,0,0,0,0,0,0,0,0,0,0,0],"sum_hessian":[9.548097E1,9.333955E1,2.141424E0,8.9763916E1,3.575633E0,1.0635037E0,1.0779201E0,8.760871E1,2.1552079E0,2.3738604E0,1.2017726E0,8.213656E1,5.4721494E0,1.257619E0,1.1162415E0,6.998625E1,1.2150306E1,4.1747227E0,1.2974268E0,6.565262E1,4.3336334E0,7.73896E0,4.411346E0,2.2255182E0,1.9492042E0],"tree_param":{"num_deleted":"0","num_feature":"2048","num_nodes":"25","size_leaf_vector":"1"}},{"base_weights":[1.4047958E-2,-6.3085863E-3,1.9846494E-1,-3.464045E-2,5.070715E-1,-6.628813E-2,4.603496E-1,-9.6593246E-2,2.4420066E-1,-1.4249139E-1,1.9111028E-1,2.2211504E-1,-3.7075285E-2,-1.9263132E-1,5.5865055E-1,3.1169233E-1,-2.0366266E-1,-6.665895E-2,2.1641497E-1,3.5639998E-2,2.4435936E-1,1.2175984E-1,-1.4669509E-1],"categories":[],"categories_nodes":[],"categories_segments":[],"categories_sizes":[],"default_left":[0,0,0,0,0,0,0,0,0,0,0,0,0,0,0,0,0,0,0,0,0,0,0],"id":29,"left_children":[1,3,-1,5,7,9,11,-1,-1,13,15,-1,-1,17,19,21,-1,-1,-1,-1,-1,-1,-1],"loss_changes":[1.2540858E0,1.3692002E0,0E0,1.4247826E0,1.5150857E0,1.6852373E0,9.866867E-1,0E0,0E0,2.4205935E0,2.2819757E0,0E0,0E0,1.8396604E0,4.262948E-1,1.5571184E0,0E0,0E0,0E0,0E0,0E0,0E0,0E0],"parents":[2147483647,0,0,1,1,3,3,4,4,5,5,6,6,9,9,10,10,13,13,14,14,15,15],"right_children":[2,4,-1,6,8,10,12,-1,-1,14,16,-1,-1,18,20,22,-1,-1,-1,-1,-1,-1,-1],"split_conditions":[1E0,1E0,1.9846494E-1,1E0,1E0,1E0,1E0,-9.6593246E-2,2.4420066E-1,1E0,1E0,2.2211504E-1,-3.7075285E-2,1E0,1E0,1E0,-2.0366266E-1,-6.665895E-2,2.1641497E-1,3.5639998E-2,2.4435936E-1,1.2175984E-1,-1.4669509E-1],"split_indices":[698,1357,0,175,1970,1954,251,0,0,1374,1089,0,0,594,1279,1453,0,0,0,0,0,0,0],"split_type":[0,0,0,0,0,0,0,0,0,0,0,0,0,0,0,0,0,0,0,0,0,0,0],"sum_hessian":[9.3827545E1,9.192773E1,1.8998209E0,8.80036E1,3.9241228E0,8.352916E1,4.474438E0,1.0470144E0,2.8771083E0,6.479338E1,1.8735779E1,2.8430765E0,1.6313616E0,6.1145985E1,3.6473992E0,1.7018679E1,1.7171013E0,5.996328E1,1.1827028E0,1.8800067E0,1.7673925E0,1.5668839E1,1.3498392E0],"tree_param":{"num_deleted":"0","num_feature":"2048","num_nodes":"23","size_leaf_vector":"1"}},{"base_weights":[2.0328714E-2,-1.5363101E-3,1.9005568E-1,3.4130648E-2,-4.240407E-1,-1.6115315E-1,1.1495669E-1,-6.655714E-1,7.3316485E-2,-5.6606434E-2,-2.6877066E-1,1.4768961E-1,-2.3923449E-1,-7.8058743E-1,-7.831442E-2,-1.3481802E-1,1.8510458E-1,8.42759E-2,6.68703E-1,-7.8681745E-2,-3.275047E-1,-8.9821056E-2,9.3024805E-2,1.3372862E-2,2.2599915E-1,2.573659E-1,-1.0578567E-2],"categories":[],"categories_nodes":[],"categories_segments":[],"categories_sizes":[],"default_left":[0,0,0,0,0,0,0,0,0,0,0,0,0,0,0,0,0,0,0,0,0,0,0,0,0,0,0],"id":30,"left_children":[1,3,-1,5,7,9,11,13,-1,15,-1,17,-1,19,-1,21,-1,23,25,-1,-1,-1,-1,-1,-1,-1,-1],"loss_changes":[1.2492322E0,1.3841976E0,0E0,1.3561245E0,1.3170412E0,1.886848E0,1.9252564E0,5.3100348E-2,0E0,1.3027918E0,0E0,1.9018263E0,0E0,3.2580876E-1,0E0,1.6716682E0,0E0,1.4002324E0,8.67507E-1,0E0,0E0,0E0,0E0,0E0,0E0,0E0,0E0],"parents":[2147483647,0,0,1,1,3,3,4,4,5,5,6,6,7,7,9,9,11,11,13,13,15,15,17,17,18,18],"right_children":[2,4,-1,6,8,10,12,14,-1,16,-1,18,-1,20,-1,22,-1,24,26,-1,-1,-1,-1,-1,-1,-1,-1],"split_conditions":[1E0,1E0,1.9005568E-1,1E0,1E0,1E0,1E0,1E0,7.3316485E-2,1E0,-2.6877066E-1,1E0,-2.3923449E-1,1E0,-7.831442E-2,1E0,1.8510458E-1,1E0,1E0,-7.8681745E-2,-3.275047E-1,-8.9821056E-2,9.3024805E-2,1.3372862E-2,2.2599915E-1,2.573659E-1,-1.0578567E-2],"split_indices":[1071,1453,0,294,1840,378,1017,1444,0,1366,0,1954,0,674,0,1008,0,259,926,0,0,0,0,0,0,0,0],"split_type":[0,0,0,0,0,0,0,0,0,0,0,0,0,0,0,0,0,0,0,0,0,0,0,0,0,0,0],"sum_hessian":[9.2102104E1,8.9894165E1,2.207935E0,8.37439E1,6.150271E0,2.422355E1,5.9520348E1,4.520944E0,1.6293265E0,2.2149029E1,2.0745215E0,5.8268085E1,1.2522614E0,2.7962523E0,1.724692E0,2.0561565E1,1.5874623E0,5.2981358E1,5.286727E0,1.7401133E0,1.056139E0,1.5247848E1,5.313719E0,5.1020576E1,1.9607823E0,3.9945765E0,1.2921503E0],"tree_param":{"num_deleted":"0","num_feature":"2048","num_nodes":"27","size_leaf_vector":"1"}},{"base_weights":[1.4854481E-2,-3.733288E-3,2.1877696E-1,-2.257592E-2,2.0824793E-1,1.6721126E-2,-4.30304E-1,4.1510306E-2,-2.7874017E-1,-8.5149133E-1,1.3344862E-1,7.728798E-2,-4.8747882E-1,-7.085229E-2,-3.0458802E-1,1.8532111E-1,-8.758228E-2,3.2505047E-2,-1.5762916E-1,-2.6261112E-1,5.9373677E-2],"categories":[],"categories_nodes":[],"categories_segments":[],"categories_sizes":[],"default_left":[0,0,0,0,0,0,0,0,0,0,0,0,0,0,0,0,0,0,0,0,0],"id":31,"left_children":[1,3,-1,5,-1,7,9,11,-1,13,15,17,19,-1,-1,-1,-1,-1,-1,-1,-1],"loss_changes":[1.2111598E0,1.1951058E0,0E0,1.4219903E0,0E0,1.949514E0,1.9656372E0,1.5588831E0,0E0,2.2383189E-1,1.0455657E0,1.4825517E0,1.5633245E0,0E0,0E0,0E0,0E0,0E0,0E0,0E0,0E0],"parents":[2147483647,0,0,1,1,3,3,5,5,6,6,7,7,9,9,10,10,11,11,12,12],"right_children":[2,4,-1,6,-1,8,10,12,-1,14,16,18,20,-1,-1,-1,-1,-1,-1,-1,-1],"split_conditions":[1E0,1E0,2.1877696E-1,1E0,2.0824793E-1,1E0,1E0,1E0,-2.7874017E-1,1E0,1E0,1E0,1E0,-7.085229E-2,-3.0458802E-1,1.8532111E-1,-8.758228E-2,3.2505047E-2,-1.5762916E-1,-2.6261112E-1,5.9373677E-2],"split_indices":[1423,1479,0,561,0,2034,642,495,0,294,350,1456,784,0,0,0,0,0,0,0,0],"split_type":[0,0,0,0,0,0,0,0,0,0,0,0,0,0,0,0,0,0,0,0,0],"sum_hessian":[9.000268E1,8.8689865E1,1.3128154E0,8.730046E1,1.3894012E0,8.050075E1,6.799715E0,7.937654E1,1.1242046E0,3.599832E0,3.199883E0,7.514788E1,4.2286606E0,1.270199E0,2.329633E0,1.2849045E0,1.9149784E0,7.224484E1,2.9030359E0,2.5233867E0,1.705274E0],"tree_param":{"num_deleted":"0","num_feature":"2048","num_nodes":"21","size_leaf_vector":"1"}},{"base_weights":[6.1236126E-3,2.6752498E-2,-1.9442512E-1,4.5129564E-2,-2.0414872E-1,6.352905E-2,-1.9426888E-1,8.405472E-2,-1.6279823E-1,5.6949772E-2,6.4160347E-1,5.4834257E-3,1.4620152E-1,4.664422E-2,2.4071102E-1],"categories":[],"categories_nodes":[],"categories_segments":[],"categories_sizes":[],"default_left":[0,0,0,0,0,0,0,0,0,0,0,0,0,0,0],"id":32,"left_children":[1,3,-1,5,-1,7,-1,9,-1,11,13,-1,-1,-1,-1],"loss_changes":[1.239017E0,1.1837866E0,0E0,1.1551777E0,0E0,1.11638E0,0E0,1.2344824E0,0E0,1.3442907E0,1.723628E-1,0E0,0E0,0E0,0E0],"parents":[2147483647,0,0,1,1,3,3,5,5,7,7,9,9,10,10],"right_children":[2,4,-1,6,-1,8,-1,10,-1,12,14,-1,-1,-1,-1],"split_conditions":[1E0,1E0,-1.9442512E-1,1E0,-2.0414872E-1,1E0,-1.9426888E-1,1E0,-1.6279823E-1,1E0,1E0,5.4834257E-3,1.4620152E-1,4.664422E-2,2.4071102E-1],"split_indices":[914,1287,0,1114,0,1120,0,1366,0,232,322,0,0,0,0],"split_type":[0,0,0,0,0,0,0,0,0,0,0,0,0,0,0],"sum_hessian":[8.952449E1,8.771763E1,1.8068616E0,8.6408585E1,1.3090421E0,8.505755E1,1.3510349E0,8.310495E1,1.9526058E0,8.030319E1,2.8017554E0,7.4639114E1,5.6640763E0,1.1851732E0,1.6165822E0],"tree_param":{"num_deleted":"0","num_feature":"2048","num_nodes":"15","size_leaf_vector":"1"}},{"base_weights":[1.0178618E-3,-1.6065635E-2,2.1267693E-1,-3.568817E-2,1.791578E-1,-5.6336097E-2,2.3120397E-1,-8.470402E-2,4.2382348E-1,-1.05230875E-1,1.9651629E-1,1.8815003E-1,-4.2838003E-2,-6.036538E-2,2.41122E-2],"categories":[],"categories_nodes":[],"categories_segments":[],"categories_sizes":[],"default_left":[0,0,0,0,0,0,0,0,0,0,0,0,0,0,0],"id":33,"left_children":[1,3,-1,5,-1,7,-1,9,11,13,-1,-1,-1,-1,-1],"loss_changes":[1.0946708E0,1.085603E0,0E0,1.4860264E0,0E0,1.1993176E0,0E0,1.3062205E0,6.57725E-1,1.4439759E0,0E0,0E0,0E0,0E0,0E0],"parents":[2147483647,0,0,1,1,3,3,5,5,7,7,8,8,9,9],"right_children":[2,4,-1,6,-1,8,-1,10,12,14,-1,-1,-1,-1,-1],"split_conditions":[1E0,1E0,2.1267693E-1,1E0,1.791578E-1,1E0,2.3120397E-1,1E0,1E0,1E0,1.9651629E-1,1.8815003E-1,-4.2838003E-2,-6.036538E-2,2.41122E-2],"split_indices":[850,898,0,1454,0,175,0,1957,1546,1160,0,0,0,0,0],"split_type":[0,0,0,0,0,0,0,0,0,0,0,0,0,0,0],"sum_hessian":[8.857554E1,8.744264E1,1.1329008E0,8.564407E1,1.7985629E0,8.4412735E1,1.2313437E0,8.048146E1,3.9312692E0,7.914314E1,1.3383185E0,2.8143966E0,1.1168724E0,5.2109947E1,2.7033197E1],"tree_param":{"num_deleted":"0","num_feature":"2048","num_nodes":"15","size_leaf_vector":"1"}},{"base_weights":[1.1919159E-2,-1.0876899E-2,1.6594818E-1,1.0646851E-2,-2.122197E-1,-9.631582E-3,1.749289E-1,-3.4424987E-2,4.911681E-1,-1.22648284E-1,1.1487168E-1,2.2770353E-1,1.2366382E-2,-3.6913597E-3,-1.3837458E-1,1.7543912E-1,9.727111E-4],"categories":[],"categories_nodes":[],"categories_segments":[],"categories_sizes":[],"default_left":[0,0,0,0,0,0,0,0,0,0,0,0,0,0,0,0,0],"id":34,"left_children":[1,3,-1,5,-1,7,-1,9,11,13,15,-1,-1,-1,-1,-1,-1],"loss_changes":[1.1022215E0,1.3003694E0,0E0,9.881111E-1,0E0,1.0440642E0,0E0,1.0646045E0,4.4689536E-1,1.8854651E0,1.5792215E0,0E0,0E0,0E0,0E0,0E0,0E0],"parents":[2147483647,0,0,1,1,3,3,5,5,7,7,8,8,9,9,10,10],"right_children":[2,4,-1,6,-1,8,-1,10,12,14,16,-1,-1,-1,-1,-1,-1],"split_conditions":[1E0,1E0,1.6594818E-1,1E0,-2.122197E-1,1E0,1.749289E-1,1E0,1E0,1E0,1E0,2.2770353E-1,1.2366382E-2,-3.6913597E-3,-1.3837458E-1,1.7543912E-1,9.727111E-4],"split_indices":[584,1693,0,1686,0,882,0,1385,322,650,718,0,0,0,0,0,0],"split_type":[0,0,0,0,0,0,0,0,0,0,0,0,0,0,0,0,0],"sum_hessian":[8.784662E1,8.523652E1,2.610096E0,8.363671E1,1.5998064E0,8.172487E1,1.9118445E0,7.875706E1,2.967815E0,4.9616096E1,2.9140957E1,1.4297961E0,1.5380188E0,3.8202824E1,1.1413275E1,4.7799754E0,2.4360981E1],"tree_param":{"num_deleted":"0","num_feature":"2048","num_nodes":"17","size_leaf_vector":"1"}},{"base_weights":[1.3161102E-2,3.172509E-2,-1.7291576E-1,7.840377E-3,2.0808816E-1,3.0906975E-2,-1.6521679E-1,-1.9397685E-2,3.9119956E-1,2.5111903E-2,-4.3499506E-1,8.079019E-1,-2.6113135E-1,1.8111276E-2,-1.8055019E-1,-2.1691374E-1,2.805258E-2,1.5006703E-2,3.0475098E-1,1.941695E-1,-2.5266308E-1],"categories":[],"categories_nodes":[],"categories_segments":[],"categories_sizes":[],"default_left":[0,0,0,0,0,0,0,0,0,0,0,0,0,0,0,0,0,0,0,0,0],"id":35,"left_children":[1,3,-1,5,-1,7,-1,9,11,13,15,17,19,-1,-1,-1,-1,-1,-1,-1,-1],"loss_changes":[9.773082E-1,1.3525846E0,0E0,1.0982552E0,0E0,1.4854233E0,0E0,1.3520603E0,2.9393024E0,1.5048732E0,1.1436421E0,9.52858E-1,3.0090642E0,0E0,0E0,0E0,0E0,0E0,0E0,0E0,0E0],"parents":[2147483647,0,0,1,1,3,3,5,5,7,7,8,8,9,9,10,10,11,11,12,12],"right_children":[2,4,-1,6,-1,8,-1,10,12,14,16,18,20,-1,-1,-1,-1,-1,-1,-1,-1],"split_conditions":[1E0,1E0,-1.7291576E-1,1E0,2.0808816E-1,1E0,-1.6521679E-1,1E0,1E0,1E0,1E0,1E0,1E0,1.8111276E-2,-1.8055019E-1,-2.1691374E-1,2.805258E-2,1.5006703E-2,3.0475098E-1,1.941695E-1,-2.5266308E-1],"split_indices":[572,1347,0,84,0,443,0,1088,706,1473,25,1452,1991,0,0,0,0,0,0,0,0],"split_type":[0,0,0,0,0,0,0,0,0,0,0,0,0,0,0,0,0,0,0,0,0],"sum_hessian":[8.662722E1,8.490003E1,1.7271928E0,8.2919716E1,1.9803097E0,8.0538445E1,2.3812752E0,7.150145E1,9.036993E0,6.5433266E1,6.0681863E0,5.3689055E0,3.6680875E0,6.2804867E1,2.628397E0,3.689303E0,2.3788831E0,1.422984E0,3.9459214E0,1.3866236E0,2.2814636E0],"tree_param":{"num_deleted":"0","num_feature":"2048","num_nodes":"21","size_leaf_vector":"1"}},{"base_weights":[8.199518E-3,-1.0517996E-2,1.6745174E-1,-3.4619343E-2,4.7503054E-1,-1.0180822E-2,-2.3474826E-1,2.233981E-1,-4.010876E-2,-3.40796E-2,5.0768787E-1,-1.1166941E-2,-2.0642228E-1,2.453419E-2,1.9971475E-1,4.6080877E-3,-2.1184877E-1],"categories":[],"categories_nodes":[],"categories_segments":[],"categories_sizes":[],"default_left":[0,0,0,0,0,0,0,0,0,0,0,0,0,0,0,0,0],"id":36,"left_children":[1,3,-1,5,7,9,-1,-1,-1,11,13,15,-1,-1,-1,-1,-1],"loss_changes":[8.899878E-1,9.999163E-1,0E0,1.4724324E0,7.6300627E-1,1.0005873E0,0E0,0E0,0E0,1.1443542E0,1.8567389E-1,1.3990057E0,0E0,0E0,0E0,0E0,0E0],"parents":[2147483647,0,0,1,1,3,3,4,4,5,5,9,9,10,10,11,11],"right_children":[2,4,-1,6,8,10,-1,-1,-1,12,14,16,-1,-1,-1,-1,-1],"split_conditions":[1E0,1E0,1.6745174E-1,1E0,1E0,1E0,-2.3474826E-1,2.233981E-1,-4.010876E-2,1E0,1E0,1E0,-2.0642228E-1,2.453419E-2,1.9971475E-1,4.6080877E-3,-2.1184877E-1],"split_indices":[1278,1357,0,526,807,259,0,0,0,1855,1385,84,0,0,0,0,0],"split_type":[0,0,0,0,0,0,0,0,0,0,0,0,0,0,0,0,0],"sum_hessian":[8.4885574E1,8.30403E1,1.8452778E0,7.999811E1,3.0421944E0,7.844824E1,1.549863E0,1.9535699E0,1.0886245E0,7.588067E1,2.567574E0,7.429483E1,1.5858395E0,1.1055284E0,1.4620456E0,7.250528E1,1.7895498E0],"tree_param":{"num_deleted":"0","num_feature":"2048","num_nodes":"17","size_leaf_vector":"1"}},{"base_weights":[5.3424835E-3,-1.1615873E-2,1.8352799E-1,6.293825E-3,-2.2269933E-1,4.667099E-2,-3.3150214E-1,6.44869E-2,-1.8964419E-1,-5.239027E-1,-7.695549E-2,8.566731E-2,-1.5752397E-1,-1.8831334E-1,-2.2730169E-1,1.13251925E-1,-1.17106155E-1,1.2845927E-2,1.7926095E-1,3.173293E-2,-1.1018699E-1],"categories":[],"categories_nodes":[],"categories_segments":[],"categories_sizes":[],"default_left":[0,0,0,0,0,0,0,0,0,0,0,0,0,0,0,0,0,0,0,0,0],"id":37,"left_children":[1,3,-1,5,-1,7,9,11,-1,13,15,17,-1,19,-1,-1,-1,-1,-1,-1,-1],"loss_changes":[8.8191205E-1,1.10048E0,0E0,1.1437324E0,0E0,9.449694E-1,3.982789E-1,9.660617E-1,0E0,2.4393976E-1,8.633912E-1,1.554929E0,0E0,2.1539868E-1,0E0,0E0,0E0,0E0,0E0,0E0,0E0],"parents":[2147483647,0,0,1,1,3,3,5,5,6,6,7,7,9,9,10,10,11,11,13,13],"right_children":[2,4,-1,6,-1,8,10,12,-1,14,16,18,-1,20,-1,-1,-1,-1,-1,-1,-1],"split_conditions":[1E0,1E0,1.8352799E-1,1E0,-2.2269933E-1,1E0,1E0,1E0,-1.8964419E-1,1E0,1E0,1E0,-1.5752397E-1,1E0,-2.2730169E-1,1.13251925E-1,-1.17106155E-1,1.2845927E-2,1.7926095E-1,3.173293E-2,-1.1018699E-1],"split_indices":[1479,1110,0,728,0,1763,784,914,0,1399,1928,1518,0,294,0,0,0,0,0,0,0],"split_type":[0,0,0,0,0,0,0,0,0,0,0,0,0,0,0,0,0,0,0,0,0],"sum_hessian":[8.406604E1,8.273327E1,1.3327758E0,8.172167E1,1.0115967E0,7.376615E1,7.9555216E0,7.276149E1,1.0046588E0,3.9281938E0,4.0273275E0,7.106321E1,1.6982787E0,2.3541827E0,1.574011E0,1.5602444E0,2.4670832E0,6.657408E1,4.489131E0,1.0454005E0,1.3087823E0],"tree_param":{"num_deleted":"0","num_feature":"2048","num_nodes":"21","size_leaf_vector":"1"}},{"base_weights":[-1.8156515E-3,-2.0326989E-2,1.669167E-1,-3.935985E-2,2.0752192E-1,-5.8479585E-2,1.5325381E-1,-9.2192456E-2,2.9136842E-1,-1.4047465E-1,2.0248665E-1,5.222934E-2,1.9020918E-1,-4.9988423E-2,1.7242219E-1,1.1969656E-1,-1.830562E-1,8.436153E-2,-1.3873525E-1],"categories":[],"categories_nodes":[],"categories_segments":[],"categories_sizes":[],"default_left":[0,0,0,0,0,0,0,0,0,0,0,0,0,0,0,0,0,0,0],"id":38,"left_children":[1,3,-1,5,-1,7,-1,9,11,13,15,17,-1,-1,-1,-1,-1,-1,-1],"loss_changes":[8.81703E-1,1.145246E0,0E0,8.850595E-1,0E0,9.64046E-1,0E0,1.0704243E0,5.588865E-1,1.2838546E0,1.9553145E0,7.599187E-1,0E0,0E0,0E0,0E0,0E0,0E0,0E0],"parents":[2147483647,0,0,1,1,3,3,5,5,7,7,8,8,9,9,10,10,11,11],"right_children":[2,4,-1,6,-1,8,-1,10,12,14,16,18,-1,-1,-1,-1,-1,-1,-1],"split_conditions":[1E0,1E0,1.669167E-1,1E0,2.0752192E-1,1E0,1.5325381E-1,1E0,1E0,1E0,1E0,1E0,1.9020918E-1,-4.9988423E-2,1.7242219E-1,1.1969656E-1,-1.830562E-1,8.436153E-2,-1.3873525E-1],"split_indices":[898,1454,0,1071,0,959,0,443,694,1127,84,718,0,0,0,0,0,0,0],"split_type":[0,0,0,0,0,0,0,0,0,0,0,0,0,0,0,0,0,0,0],"sum_hessian":[8.323339E1,8.149443E1,1.7389561E0,8.0293E1,1.2014303E0,7.846021E1,1.832791E0,7.223574E1,6.22447E0,6.2516E1,9.719744E0,4.344752E0,1.8797187E0,6.1050575E1,1.4654231E0,8.237086E0,1.4826577E0,3.3209345E0,1.0238172E0],"tree_param":{"num_deleted":"0","num_feature":"2048","num_nodes":"19","size_leaf_vector":"1"}},{"base_weights":[8.479495E-3,2.5439488E-2,-1.6578738E-1,4.242695E-2,-1.5425219E-1,5.7691555E-2,-1.7398335E-1,2.3293795E-2,4.3835267E-1,4.47072E-2,-2.153271E-1,-6.7746313E-4,2.5087705E-1,2.0166531E-2,-1.78575E-1,7.533627E-2,-8.990504E-2],"categories":[],"categories_nodes":[],"categories_segments":[],"categories_sizes":[],"default_left":[0,0,0,0,0,0,0,0,0,0,0,0,0,0,0,0,0],"id":39,"left_children":[1,3,-1,5,-1,7,-1,9,11,13,-1,15,-1,-1,-1,-1,-1],"loss_changes":[8.085628E-1,7.7343637E-1,0E0,7.9743373E-1,0E0,1.0294541E0,0E0,1.2043942E0,1.1402864E0,1.0881236E0,0E0,3.8401645E-1,0E0,0E0,0E0,0E0,0E0],"parents":[2147483647,0,0,1,1,3,3,5,5,7,7,8,8,9,9,11,11],"right_children":[2,4,-1,6,-1,8,-1,10,12,14,-1,16,-1,-1,-1,-1,-1],"split_conditions":[1E0,1E0,-1.6578738E-1,1E0,-1.5425219E-1,1E0,-1.7398335E-1,1E0,1E0,1E0,-2.153271E-1,1E0,2.5087705E-1,2.0166531E-2,-1.78575E-1,7.533627E-2,-8.990504E-2],"split_indices":[1171,809,0,1077,0,939,0,1600,674,1773,0,1279,0,0,0,0,0],"split_type":[0,0,0,0,0,0,0,0,0,0,0,0,0,0,0,0,0],"sum_hessian":[8.24886E1,8.0995094E1,1.493505E0,7.941638E1,1.578716E0,7.840079E1,1.0155944E0,7.287662E1,5.5241714E0,7.1743195E1,1.1334211E0,3.1009812E0,2.4231904E0,7.0169495E1,1.5736991E0,1.7703148E0,1.3306664E0],"tree_param":{"num_deleted":"0","num_feature":"2048","num_nodes":"17","size_leaf_vector":"1"}},{"base_weights":[-1.1917609E-3,-1.8604802E-2,1.6556533E-1,-3.544101E-2,1.7531976E-1,-9.0727925E-2,1.5917887E-1,-3.9846748E-2,-5.775619E-1,5.435397E-1,-4.4532806E-2,2.87494E-3,-6.049341E-1,-2.4953116E-1,-1.3711847E-1,2.3399629E-1,-2.4435911E-2,-1.5380824E-1,1.6612715E-1,1.4174439E-2,-1.3960136E-1,-2.1549258E-1,-6.0057092E-2,7.326091E-2,-1.3313435E-1,-8.9215666E-2,1.1849558E-1],"categories":[],"categories_nodes":[],"categories_segments":[],"categories_sizes":[],"default_left":[0,0,0,0,0,0,0,0,0,0,0,0,0,0,0,0,0,0,0,0,0,0,0,0,0,0,0],"id":40,"left_children":[1,3,-1,5,-1,7,9,11,13,15,17,19,21,-1,23,-1,-1,25,-1,-1,-1,-1,-1,-1,-1,-1,-1],"loss_changes":[8.0504894E-1,8.427834E-1,0E0,8.7219495E-1,0E0,1.5305642E0,1.4334991E0,1.3985124E0,5.421295E-1,9.9610996E-1,9.1471076E-1,1.1602327E0,4.3030143E-2,0E0,4.9918664E-1,0E0,0E0,1.02449E0,0E0,0E0,0E0,0E0,0E0,0E0,0E0,0E0,0E0],"parents":[2147483647,0,0,1,1,3,3,5,5,6,6,7,7,8,8,9,9,10,10,11,11,12,12,14,14,17,17],"right_children":[2,4,-1,6,-1,8,10,12,14,16,18,20,22,-1,24,-1,-1,26,-1,-1,-1,-1,-1,-1,-1,-1,-1],"split_conditions":[1E0,1E0,1.6556533E-1,1E0,1.7531976E-1,1E0,1E0,1E0,1E0,1E0,1E0,1E0,1E0,-2.4953116E-1,1E0,2.3399629E-1,-2.4435911E-2,1E0,1.6612715E-1,1.4174439E-2,-1.3960136E-1,-2.1549258E-1,-6.0057092E-2,7.326091E-2,-1.3313435E-1,-8.9215666E-2,1.1849558E-1],"split_indices":[698,1423,0,1854,0,147,212,1088,1385,728,175,561,13,0,57,0,0,366,0,0,0,0,0,0,0,0,0],"split_type":[0,0,0,0,0,0,0,0,0,0,0,0,0,0,0,0,0,0,0,0,0,0,0,0,0,0,0],"sum_hessian":[8.152547E1,7.997393E1,1.5515366E0,7.871733E1,1.2566061E0,6.1718407E1,1.6998922E1,5.6857796E1,4.860611E0,5.3106565E0,1.1688266E1,5.3786354E1,3.0714393E0,2.518523E0,2.3420877E0,3.6730642E0,1.6375922E0,1.0511331E1,1.1769353E0,4.9951473E1,3.8348835E0,1.7941486E0,1.2772908E0,1.1347507E0,1.207337E0,8.694702E0,1.8166285E0],"tree_param":{"num_deleted":"0","num_feature":"2048","num_nodes":"27","size_leaf_vector":"1"}},{"base_weights":[-5.8909284E-4,-1.8210717E-2,1.388897E-1,4.787064E-3,-2.4413796E-1,-1.8058404E-2,1.8930675E-1,9.571887E-3,-4.8508635E-1,-3.7780754E-2,3.3538422E-1,1.088314E-2,-2.778138E-1,-5.7780143E-2,2.8542109E-2,1.414837E-1,-9.500128E-2],"categories":[],"categories_nodes":[],"categories_segments":[],"categories_sizes":[],"default_left":[0,0,0,0,0,0,0,0,0,0,0,0,0,0,0,0,0],"id":41,"left_children":[1,3,-1,5,-1,7,-1,9,11,13,15,-1,-1,-1,-1,-1,-1],"loss_changes":[6.7299056E-1,1.4555186E0,0E0,1.1287929E0,0E0,9.895712E-1,0E0,1.1395974E0,1.0182002E0,1.349233E0,9.816772E-1,0E0,0E0,0E0,0E0,0E0,0E0],"parents":[2147483647,0,0,1,1,3,3,5,5,7,7,8,8,9,9,10,10],"right_children":[2,4,-1,6,-1,8,-1,10,12,14,16,-1,-1,-1,-1,-1,-1],"split_conditions":[1E0,1E0,1.388897E-1,1E0,-2.4413796E-1,1E0,1.8930675E-1,1E0,1E0,1E0,1E0,1.088314E-2,-2.778138E-1,-5.7780143E-2,2.8542109E-2,1.414837E-1,-9.500128E-2],"split_indices":[489,572,0,1347,0,1089,0,2000,1954,1143,1603,0,0,0,0,0,0],"split_type":[0,0,0,0,0,0,0,0,0,0,0,0,0,0,0,0,0],"sum_hessian":[8.035551E1,7.8338264E1,2.0172446E0,7.710343E1,1.2348341E0,7.532663E1,1.7768004E0,7.204388E1,3.2827528E0,6.3673756E1,8.370122E0,1.924763E0,1.3579898E0,2.9206516E1,3.446724E1,7.1525354E0,1.2175865E0],"tree_param":{"num_deleted":"0","num_feature":"2048","num_nodes":"17","size_leaf_vector":"1"}},{"base_weights":[-1.4063674E-3,1.3301707E-2,-1.7339425E-1,-8.539339E-3,4.9015334E-1,1.0345521E-2,-1.6629906E-1,3.697252E-2,2.0004548E-1,-4.727837E-2,2.1779086E-1,-8.578571E-2,4.9583894E-1,6.6606924E-2,1.9510984E-1,-3.600206E-2,1.921082E-1,3.1286456E-2,2.2513323E-1,5.9332E-2,-1.2967442E-1],"categories":[],"categories_nodes":[],"categories_segments":[],"categories_sizes":[],"default_left":[0,0,0,0,0,0,0,0,0,0,0,0,0,0,0,0,0,0,0,0,0],"id":42,"left_children":[1,3,-1,5,7,9,-1,-1,-1,11,13,15,17,19,-1,-1,-1,-1,-1,-1,-1],"loss_changes":[6.8874216E-1,8.2998526E-1,0E0,7.973284E-1,1.4402735E-1,9.093829E-1,0E0,0E0,0E0,1.290772E0,1.0376608E0,1.4829665E0,3.3036816E-1,9.598333E-1,0E0,0E0,0E0,0E0,0E0,0E0,0E0],"parents":[2147483647,0,0,1,1,3,3,4,4,5,5,9,9,10,10,11,11,12,12,13,13],"right_children":[2,4,-1,6,8,10,-1,-1,-1,12,14,16,18,20,-1,-1,-1,-1,-1,-1,-1],"split_conditions":[1E0,1E0,-1.7339425E-1,1E0,1E0,1E0,-1.6629906E-1,3.697252E-2,2.0004548E-1,1E0,1E0,1E0,1E0,1E0,1.9510984E-1,-3.600206E-2,1.921082E-1,3.1286456E-2,2.2513323E-1,5.9332E-2,-1.2967442E-1],"split_indices":[1114,1357,0,526,345,1954,0,0,0,975,1249,259,772,1399,0,0,0,0,0,0,0],"split_type":[0,0,0,0,0,0,0,0,0,0,0,0,0,0,0,0,0,0,0,0,0],"sum_hessian":[7.9310135E1,7.828993E1,1.0202003E0,7.580018E1,2.4897532E0,7.421338E1,1.5868055E0,1.3609099E0,1.1288432E0,5.868424E1,1.5529138E1,5.558526E1,3.0989783E0,1.2362466E1,3.166672E0,5.3880753E1,1.7045076E0,1.7765204E0,1.322458E0,1.0266571E1,2.0958948E0],"tree_param":{"num_deleted":"0","num_feature":"2048","num_nodes":"21","size_leaf_vector":"1"}},{"base_weights":[5.803671E-3,-1.11079225E-2,1.5176009E-1,-2.8052557E-2,1.8409774E-1,-2.837447E-3,-4.244994E-1,-3.3089925E-2,2.2767814E-1,7.8672245E-2,-2.371747E-1,-5.8166537E-2,4.9337688E-1,-1.0870705E-2,-2.1835001E-1,2.8932583E-2,1.89074E-1],"categories":[],"categories_nodes":[],"categories_segments":[],"categories_sizes":[],"default_left":[0,0,0,0,0,0,0,0,0,0,0,0,0,0,0,0,0],"id":43,"left_children":[1,3,-1,5,-1,7,9,11,-1,-1,-1,13,15,-1,-1,-1,-1],"loss_changes":[6.763535E-1,8.397437E-1,0E0,7.645344E-1,0E0,1.7080421E0,1.3572354E0,9.686272E-1,0E0,0E0,0E0,9.848337E-1,1.2080902E-1,0E0,0E0,0E0,0E0],"parents":[2147483647,0,0,1,1,3,3,5,5,6,6,7,7,11,11,12,12],"right_children":[2,4,-1,6,-1,8,10,12,-1,-1,-1,14,16,-1,-1,-1,-1],"split_conditions":[1E0,1E0,1.5176009E-1,1E0,1.8409774E-1,1E0,1E0,1E0,2.2767814E-1,7.8672245E-2,-2.371747E-1,1E0,1E0,-1.0870705E-2,-2.1835001E-1,2.8932583E-2,1.89074E-1],"split_indices":[898,1454,0,706,0,232,1991,1366,0,0,0,1464,322,0,0,0,0],"split_type":[0,0,0,0,0,0,0,0,0,0,0,0,0,0,0,0,0],"sum_hessian":[7.83124E1,7.6696396E1,1.6160015E0,7.560108E1,1.0953174E0,7.2027115E1,3.5739653E0,7.019594E1,1.8311781E0,1.3413552E0,2.2326102E0,6.785346E1,2.3424737E0,6.672249E1,1.1309786E0,1.0376933E0,1.3047806E0],"tree_param":{"num_deleted":"0","num_feature":"2048","num_nodes":"17","size_leaf_vector":"1"}},{"base_weights":[9.431355E-3,-9.574749E-3,4.6170825E-1,1.0316351E-2,-1.8470527E-1,4.470413E-2,1.7105305E-1,2.6144024E-2,-1.6567445E-1,5.787866E-2,-2.6842308E-1,1.0164355E-2,3.020986E-1,-4.125381E-1,7.562497E-2,-6.94723E-3,1.8369412E-1,1.3794622E-1,-1.2410911E-1,-1.8036649E-1,6.293521E-2],"categories":[],"categories_nodes":[],"categories_segments":[],"categories_sizes":[],"default_left":[0,0,0,0,0,0,0,0,0,0,0,0,0,0,0,0,0,0,0,0,0],"id":44,"left_children":[1,3,5,7,-1,-1,-1,9,-1,11,13,15,17,19,-1,-1,-1,-1,-1,-1,-1],"loss_changes":[6.8316734E-1,9.3173456E-1,2.3730338E-2,6.8492E-1,0E0,0E0,0E0,7.0910645E-1,0E0,7.8700525E-1,6.585799E-1,1.1730096E0,1.4373739E0,8.5054684E-1,0E0,0E0,0E0,0E0,0E0,0E0,0E0],"parents":[2147483647,0,0,1,1,2,2,3,3,7,7,9,9,10,10,11,11,12,12,13,13],"right_children":[2,4,6,8,-1,-1,-1,10,-1,12,14,16,18,20,-1,-1,-1,-1,-1,-1,-1],"split_conditions":[1E0,1E0,1E0,1E0,-1.8470527E-1,4.470413E-2,1.7105305E-1,1E0,-1.6567445E-1,1E0,1E0,1E0,1E0,1E0,7.562497E-2,-6.94723E-3,1.8369412E-1,1.3794622E-1,-1.2410911E-1,-1.8036649E-1,6.293521E-2],"split_indices":[584,1693,1781,1004,0,0,0,1453,0,832,1970,1889,301,1008,0,0,0,0,0,0,0],"split_type":[0,0,0,0,0,0,0,0,0,0,0,0,0,0,0,0,0,0,0,0,0],"sum_hessian":[7.796055E1,7.5755875E1,2.2046711E0,7.430049E1,1.4553894E0,1.179163E0,1.0255083E0,7.3194695E1,1.1057954E0,6.6801476E1,6.393219E0,5.6754684E1,1.0046789E1,5.1693783E0,1.2238406E0,5.46898E1,2.0648863E0,8.525783E0,1.5210063E0,3.9927206E0,1.1766577E0],"tree_param":{"num_deleted":"0","num_feature":"2048","num_nodes":"21","size_leaf_vector":"1"}},{"base_weights":[7.707191E-3,2.5409732E-2,-1.3991387E-1,4.9818284E-3,1.552531E-1,-1.1296377E-2,1.6082591E-1,-8.469886E-2,1.2886566E-1,-5.1351286E-2,-2.3962922E-1,1.2953461E-2,5.2251E-1,-3.2006353E-2,1.1048715E-1,-1.9771809E-2,1.990143E-1,1.5659224E-2,2.3316522E-1],"categories":[],"categories_nodes":[],"categories_segments":[],"categories_sizes":[],"default_left":[0,0,0,0,0,0,0,0,0,0,0,0,0,0,0,0,0,0,0],"id":45,"left_children":[1,3,-1,5,-1,7,-1,9,11,13,-1,15,17,-1,-1,-1,-1,-1,-1],"loss_changes":[6.6640705E-1,7.627607E-1,0E0,6.4675814E-1,0E0,7.607661E-1,0E0,1.1123868E0,1.1543345E0,1.1387111E0,0E0,1.1046456E0,6.498157E-1,0E0,0E0,0E0,0E0,0E0,0E0],"parents":[2147483647,0,0,1,1,3,3,5,5,7,7,8,8,9,9,11,11,12,12],"right_children":[2,4,-1,6,-1,8,-1,10,12,14,-1,16,18,-1,-1,-1,-1,-1,-1],"split_conditions":[1E0,1E0,-1.3991387E-1,1E0,1.552531E-1,1E0,1.6082591E-1,1E0,1E0,1E0,-2.3962922E-1,1E0,1E0,-3.2006353E-2,1.1048715E-1,-1.9771809E-2,1.990143E-1,1.5659224E-2,2.3316522E-1],"split_indices":[1921,541,0,1957,0,784,0,1809,1160,939,0,463,1452,0,0,0,0,0,0],"split_type":[0,0,0,0,0,0,0,0,0,0,0,0,0,0,0,0,0,0,0],"sum_hessian":[7.699265E1,7.513355E1,1.8591064E0,7.310881E1,2.024743E0,7.18843E1,1.2245035E0,4.743725E1,2.4447056E1,4.634481E1,1.0924362E0,1.9683867E1,4.7631884E0,4.1604366E1,4.740444E0,1.8356901E1,1.3269647E0,2.096665E0,2.6665235E0],"tree_param":{"num_deleted":"0","num_feature":"2048","num_nodes":"19","size_leaf_vector":"1"}},{"base_weights":[1.2432158E-2,-3.5941042E-3,1.5114595E-1,1.5333458E-2,-1.5524204E-1,-1.8563496E-2,3.049983E-1,9.286787E-3,-2.2368404E-1,-1.2775022E-1,5.029214E-1,-1.670808E-2,1.660835E-1,-6.149149E-2,3.9738673E-3,2.8280395E-1,2.0741726E-1,-1.0849033E-2,1.6203831E-1,1.4153752E-1,-2.1118198E-2],"categories":[],"categories_nodes":[],"categories_segments":[],"categories_sizes":[],"default_left":[0,0,0,0,0,0,0,0,0,0,0,0,0,0,0,0,0,0,0,0,0],"id":46,"left_children":[1,3,-1,5,-1,7,9,11,-1,13,15,17,-1,-1,-1,19,-1,-1,-1,-1,